<?xml version="1.0"?>
<opencv_storage>
<cascade>
  <stageType>BOOST</stageType>
  <featureType>HAAR</featureType>
  <height>50</height>
  <width>20</width>
  <stageParams>
    <boostType>GAB</boostType>
    <minHitRate>9.9900001287460327e-01</minHitRate>
    <maxFalseAlarm>5.0000000000000000e-01</maxFalseAlarm>
    <weightTrimRate>9.4999999999999996e-01</weightTrimRate>
    <maxDepth>1</maxDepth>
    <maxWeakCount>100</maxWeakCount></stageParams>
  <featureParams>
    <maxCatCount>0</maxCatCount>
    <featSize>1</featSize>
    <mode>ALL</mode></featureParams>
  <stageNum>24</stageNum>
  <stages>
    <!-- stage 0 -->
    <_>
      <maxWeakCount>13</maxWeakCount>
      <stageThreshold>-1.6910622119903564e+00</stageThreshold>
      <weakClassifiers>
        <_>
          <internalNodes>
            0 -1 551 -5.8128419332206249e-03</internalNodes>
          <leafValues>
            6.0538119077682495e-01 -6.0963374376296997e-01</leafValues></_>
        <_>
          <internalNodes>
            0 -1 638 -2.1412954665720463e-03</internalNodes>
          <leafValues>
            5.8181625604629517e-01 -3.8979429006576538e-01</leafValues></_>
        <_>
          <internalNodes>
            0 -1 174 -4.4932935386896133e-02</internalNodes>
          <leafValues>
            -8.1107139587402344e-01 2.8480970859527588e-01</leafValues></_>
        <_>
          <internalNodes>
            0 -1 122 8.7505788542330265e-04</internalNodes>
          <leafValues>
            -2.1300065517425537e-01 7.4568915367126465e-01</leafValues></_>
        <_>
          <internalNodes>
            0 -1 106 -2.0002769306302071e-03</internalNodes>
          <leafValues>
            7.3390406370162964e-01 -2.6262128353118896e-01</leafValues></_>
        <_>
          <internalNodes>
            0 -1 483 -8.5873976349830627e-03</internalNodes>
          <leafValues>
            -7.5532978773117065e-01 2.6192149519920349e-01</leafValues></_>
        <_>
          <internalNodes>
            0 -1 60 1.4985827729105949e-03</internalNodes>
          <leafValues>
            -3.0847698450088501e-01 6.0741806030273438e-01</leafValues></_>
        <_>
          <internalNodes>
            0 -1 209 -4.4238593429327011e-02</internalNodes>
          <leafValues>
            -8.2497161626815796e-01 2.5405272841453552e-01</leafValues></_>
        <_>
          <internalNodes>
            0 -1 550 1.9004631787538528e-02</internalNodes>
          <leafValues>
            -3.3188626170158386e-01 5.8210170269012451e-01</leafValues></_>
        <_>
          <internalNodes>
            0 -1 377 1.6840733587741852e-03</internalNodes>
          <leafValues>
            -2.5013571977615356e-01 5.8505034446716309e-01</leafValues></_>
        <_>
          <internalNodes>
            0 -1 117 -6.7482693120837212e-03</internalNodes>
          <leafValues>
            6.9074618816375732e-01 -1.4977082610130310e-01</leafValues></_>
        <_>
          <internalNodes>
            0 -1 627 2.3690018802881241e-02</internalNodes>
          <leafValues>
            1.8354497849941254e-01 -7.3026913404464722e-01</leafValues></_>
        <_>
          <internalNodes>
            0 -1 130 -4.2618215084075928e-03</internalNodes>
          <leafValues>
            -5.9665948152542114e-01 1.7392075061798096e-01</leafValues></_></weakClassifiers></_>
    <!-- stage 1 -->
    <_>
      <maxWeakCount>12</maxWeakCount>
      <stageThreshold>-1.4188725948333740e+00</stageThreshold>
      <weakClassifiers>
        <_>
          <internalNodes>
            0 -1 382 -8.4535041823983192e-03</internalNodes>
          <leafValues>
            5.9978771209716797e-01 -5.3402644395828247e-01</leafValues></_>
        <_>
          <internalNodes>
            0 -1 660 2.4702094960957766e-03</internalNodes>
          <leafValues>
            -2.4905778467655182e-01 6.2471675872802734e-01</leafValues></_>
        <_>
          <internalNodes>
            0 -1 688 3.6634027492254972e-03</internalNodes>
          <leafValues>
            -2.2185923159122467e-01 6.6090071201324463e-01</leafValues></_>
        <_>
          <internalNodes>
            0 -1 367 -2.0456705242395401e-03</internalNodes>
          <leafValues>
            5.8341038227081299e-01 -2.4671363830566406e-01</leafValues></_>
        <_>
          <internalNodes>
            0 -1 206 7.2607964277267456e-02</internalNodes>
          <leafValues>
            1.4467629790306091e-01 -8.8326781988143921e-01</leafValues></_>
        <_>
          <internalNodes>
            0 -1 78 1.8937881104648113e-03</internalNodes>
          <leafValues>
            -2.2765842080116272e-01 6.1496710777282715e-01</leafValues></_>
        <_>
          <internalNodes>
            0 -1 87 -2.0403354428708553e-03</internalNodes>
          <leafValues>
            7.2194790840148926e-01 -2.1382865309715271e-01</leafValues></_>
        <_>
          <internalNodes>
            0 -1 257 3.0075421556830406e-02</internalNodes>
          <leafValues>
            2.1497389674186707e-01 -8.3219861984252930e-01</leafValues></_>
        <_>
          <internalNodes>
            0 -1 464 -1.2562328483909369e-03</internalNodes>
          <leafValues>
            2.6223921775817871e-01 -4.4615307450294495e-01</leafValues></_>
        <_>
          <internalNodes>
            0 -1 622 -1.2217855080962181e-02</internalNodes>
          <leafValues>
            6.5806603431701660e-01 -1.6238217055797577e-01</leafValues></_>
        <_>
          <internalNodes>
            0 -1 50 -1.8183004111051559e-02</internalNodes>
          <leafValues>
            5.1816731691360474e-01 -2.7038604021072388e-01</leafValues></_>
        <_>
          <internalNodes>
            0 -1 357 6.2982114031910896e-03</internalNodes>
          <leafValues>
            1.5017351508140564e-01 -7.3395621776580811e-01</leafValues></_></weakClassifiers></_>
    <!-- stage 2 -->
    <_>
      <maxWeakCount>21</maxWeakCount>
      <stageThreshold>-1.6099553108215332e+00</stageThreshold>
      <weakClassifiers>
        <_>
          <internalNodes>
            0 -1 323 -3.0518458224833012e-03</internalNodes>
          <leafValues>
            4.2987248301506042e-01 -5.2328157424926758e-01</leafValues></_>
        <_>
          <internalNodes>
            0 -1 624 4.6900855377316475e-03</internalNodes>
          <leafValues>
            -2.7256128191947937e-01 5.3051811456680298e-01</leafValues></_>
        <_>
          <internalNodes>
            0 -1 313 2.6780948974192142e-03</internalNodes>
          <leafValues>
            1.9611123204231262e-01 -6.8693745136260986e-01</leafValues></_>
        <_>
          <internalNodes>
            0 -1 118 6.4202147768810391e-04</internalNodes>
          <leafValues>
            -2.1467646956443787e-01 5.4531365633010864e-01</leafValues></_>
        <_>
          <internalNodes>
            0 -1 110 -1.8512590322643518e-03</internalNodes>
          <leafValues>
            7.4624657630920410e-01 -2.1049237251281738e-01</leafValues></_>
        <_>
          <internalNodes>
            0 -1 682 -2.8967815451323986e-03</internalNodes>
          <leafValues>
            5.7013815641403198e-01 -1.3764600455760956e-01</leafValues></_>
        <_>
          <internalNodes>
            0 -1 701 2.6808527763932943e-03</internalNodes>
          <leafValues>
            -1.2432618439197540e-01 7.9786640405654907e-01</leafValues></_>
        <_>
          <internalNodes>
            0 -1 72 1.3116906397044659e-02</internalNodes>
          <leafValues>
            -1.5174423158168793e-01 7.2875332832336426e-01</leafValues></_>
        <_>
          <internalNodes>
            0 -1 171 -5.9001911431550980e-03</internalNodes>
          <leafValues>
            3.8332825899124146e-01 -3.1335341930389404e-01</leafValues></_>
        <_>
          <internalNodes>
            0 -1 426 -1.6832869499921799e-02</internalNodes>
          <leafValues>
            3.5118496417999268e-01 -2.4356362223625183e-01</leafValues></_>
        <_>
          <internalNodes>
            0 -1 83 -6.6945239901542664e-02</internalNodes>
          <leafValues>
            -7.7109432220458984e-01 1.3247805833816528e-01</leafValues></_>
        <_>
          <internalNodes>
            0 -1 627 1.5079617500305176e-02</internalNodes>
          <leafValues>
            1.3333441317081451e-01 -6.4079916477203369e-01</leafValues></_>
        <_>
          <internalNodes>
            0 -1 453 1.0012101382017136e-01</internalNodes>
          <leafValues>
            1.0090216994285583e-01 -8.3489817380905151e-01</leafValues></_>
        <_>
          <internalNodes>
            0 -1 95 -2.2208415903151035e-03</internalNodes>
          <leafValues>
            4.9177742004394531e-01 -2.0197014510631561e-01</leafValues></_>
        <_>
          <internalNodes>
            0 -1 85 -2.1985450293868780e-03</internalNodes>
          <leafValues>
            6.3144332170486450e-01 -1.6361288726329803e-01</leafValues></_>
        <_>
          <internalNodes>
            0 -1 709 -2.2488119429908693e-04</internalNodes>
          <leafValues>
            -4.0296131372451782e-01 2.3971509933471680e-01</leafValues></_>
        <_>
          <internalNodes>
            0 -1 26 -9.8380021750926971e-02</internalNodes>
          <leafValues>
            5.5168479681015015e-01 -1.6460183262825012e-01</leafValues></_>
        <_>
          <internalNodes>
            0 -1 595 -5.1538215484470129e-04</internalNodes>
          <leafValues>
            2.6109987497329712e-01 -4.3474507331848145e-01</leafValues></_>
        <_>
          <internalNodes>
            0 -1 528 6.9924797862768173e-03</internalNodes>
          <leafValues>
            9.9076494574546814e-02 -8.2283985614776611e-01</leafValues></_>
        <_>
          <internalNodes>
            0 -1 658 8.2066701725125313e-04</internalNodes>
          <leafValues>
            -2.4464078247547150e-01 4.1637513041496277e-01</leafValues></_>
        <_>
          <internalNodes>
            0 -1 476 2.6446906849741936e-03</internalNodes>
          <leafValues>
            -1.9085681438446045e-01 4.2041584849357605e-01</leafValues></_></weakClassifiers></_>
    <!-- stage 3 -->
    <_>
      <maxWeakCount>21</maxWeakCount>
      <stageThreshold>-1.5566591024398804e+00</stageThreshold>
      <weakClassifiers>
        <_>
          <internalNodes>
            0 -1 262 1.7977119423449039e-03</internalNodes>
          <leafValues>
            -3.8137254118919373e-01 3.9693877100944519e-01</leafValues></_>
        <_>
          <internalNodes>
            0 -1 101 3.0643905047327280e-03</internalNodes>
          <leafValues>
            -1.7491494119167328e-01 6.2059170007705688e-01</leafValues></_>
        <_>
          <internalNodes>
            0 -1 65 -1.2637333944439888e-02</internalNodes>
          <leafValues>
            5.1765334606170654e-01 -1.9660940766334534e-01</leafValues></_>
        <_>
          <internalNodes>
            0 -1 169 -3.5132553428411484e-02</internalNodes>
          <leafValues>
            2.7372404932975769e-01 -3.8099315762519836e-01</leafValues></_>
        <_>
          <internalNodes>
            0 -1 13 2.0559903979301453e-01</internalNodes>
          <leafValues>
            -1.5623781085014343e-01 7.0552718639373779e-01</leafValues></_>
        <_>
          <internalNodes>
            0 -1 648 2.8284313157200813e-03</internalNodes>
          <leafValues>
            -1.2358040362596512e-01 7.0983600616455078e-01</leafValues></_>
        <_>
          <internalNodes>
            0 -1 554 -3.3962503075599670e-03</internalNodes>
          <leafValues>
            4.9955433607101440e-01 -2.2302168607711792e-01</leafValues></_>
        <_>
          <internalNodes>
            0 -1 188 -5.1174638792872429e-03</internalNodes>
          <leafValues>
            -6.6929262876510620e-01 1.7493121325969696e-01</leafValues></_>
        <_>
          <internalNodes>
            0 -1 556 4.4528837315738201e-03</internalNodes>
          <leafValues>
            1.0269935429096222e-01 -7.2041308879852295e-01</leafValues></_>
        <_>
          <internalNodes>
            0 -1 297 -1.0383003391325474e-02</internalNodes>
          <leafValues>
            3.9445039629936218e-01 -2.5579330325126648e-01</leafValues></_>
        <_>
          <internalNodes>
            0 -1 51 -3.6061108112335205e-03</internalNodes>
          <leafValues>
            5.9262126684188843e-01 -1.2706209719181061e-01</leafValues></_>
        <_>
          <internalNodes>
            0 -1 484 -2.1403594873845577e-03</internalNodes>
          <leafValues>
            -6.8216109275817871e-01 1.2694205343723297e-01</leafValues></_>
        <_>
          <internalNodes>
            0 -1 47 7.2401757352054119e-03</internalNodes>
          <leafValues>
            -2.1882484853267670e-01 4.3660953640937805e-01</leafValues></_>
        <_>
          <internalNodes>
            0 -1 178 -1.6990043222904205e-03</internalNodes>
          <leafValues>
            4.6388044953346252e-01 -1.9143746793270111e-01</leafValues></_>
        <_>
          <internalNodes>
            0 -1 256 2.3713756352663040e-02</internalNodes>
          <leafValues>
            1.4014415442943573e-01 -7.2888982295989990e-01</leafValues></_>
        <_>
          <internalNodes>
            0 -1 393 -5.1138910930603743e-04</internalNodes>
          <leafValues>
            2.5909280776977539e-01 -3.3653289079666138e-01</leafValues></_>
        <_>
          <internalNodes>
            0 -1 501 2.2072818130254745e-02</internalNodes>
          <leafValues>
            -2.3076765239238739e-01 4.3775594234466553e-01</leafValues></_>
        <_>
          <internalNodes>
            0 -1 721 -1.5108110383152962e-03</internalNodes>
          <leafValues>
            -4.5376014709472656e-01 2.0530045032501221e-01</leafValues></_>
        <_>
          <internalNodes>
            0 -1 583 5.5016418918967247e-03</internalNodes>
          <leafValues>
            -1.2526226043701172e-01 7.5150728225708008e-01</leafValues></_>
        <_>
          <internalNodes>
            0 -1 353 7.0912996307015419e-03</internalNodes>
          <leafValues>
            1.2225305289030075e-01 -7.7311247587203979e-01</leafValues></_>
        <_>
          <internalNodes>
            0 -1 647 1.6864065546542406e-03</internalNodes>
          <leafValues>
            -2.2666086256504059e-01 3.9738553762435913e-01</leafValues></_></weakClassifiers></_>
    <!-- stage 4 -->
    <_>
      <maxWeakCount>23</maxWeakCount>
      <stageThreshold>-1.3901391029357910e+00</stageThreshold>
      <weakClassifiers>
        <_>
          <internalNodes>
            0 -1 589 -3.6100456491112709e-03</internalNodes>
          <leafValues>
            3.0508473515510559e-01 -4.3902438879013062e-01</leafValues></_>
        <_>
          <internalNodes>
            0 -1 290 1.8515323754400015e-03</internalNodes>
          <leafValues>
            1.3865052163600922e-01 -6.5339452028274536e-01</leafValues></_>
        <_>
          <internalNodes>
            0 -1 92 1.5800321707502007e-03</internalNodes>
          <leafValues>
            -1.3149075210094452e-01 6.4427393674850464e-01</leafValues></_>
        <_>
          <internalNodes>
            0 -1 79 3.0301366932690144e-03</internalNodes>
          <leafValues>
            -1.6714805364608765e-01 6.1592072248458862e-01</leafValues></_>
        <_>
          <internalNodes>
            0 -1 714 1.0230250656604767e-02</internalNodes>
          <leafValues>
            1.1721856892108917e-01 -7.0853072404861450e-01</leafValues></_>
        <_>
          <internalNodes>
            0 -1 89 -3.6345131695270538e-02</internalNodes>
          <leafValues>
            -6.6905456781387329e-01 1.4000634849071503e-01</leafValues></_>
        <_>
          <internalNodes>
            0 -1 39 -6.2587228603661060e-03</internalNodes>
          <leafValues>
            6.2068152427673340e-01 -1.7805258929729462e-01</leafValues></_>
        <_>
          <internalNodes>
            0 -1 690 -3.3209426328539848e-03</internalNodes>
          <leafValues>
            6.5726727247238159e-01 -1.2260961532592773e-01</leafValues></_>
        <_>
          <internalNodes>
            0 -1 687 4.6164803206920624e-03</internalNodes>
          <leafValues>
            -1.8419481813907623e-01 5.4147702455520630e-01</leafValues></_>
        <_>
          <internalNodes>
            0 -1 304 -2.6120146736502647e-02</internalNodes>
          <leafValues>
            -6.0930585861206055e-01 1.9008116424083710e-01</leafValues></_>
        <_>
          <internalNodes>
            0 -1 571 -1.1557646095752716e-02</internalNodes>
          <leafValues>
            -7.4429696798324585e-01 4.7339294105768204e-02</leafValues></_>
        <_>
          <internalNodes>
            0 -1 564 -7.5867883424507454e-06</internalNodes>
          <leafValues>
            2.7168977260589600e-01 -2.8588902950286865e-01</leafValues></_>
        <_>
          <internalNodes>
            0 -1 662 1.9027807284146547e-03</internalNodes>
          <leafValues>
            -1.5230488777160645e-01 4.5638322830200195e-01</leafValues></_>
        <_>
          <internalNodes>
            0 -1 654 4.5447170850820839e-04</internalNodes>
          <leafValues>
            1.5879561007022858e-01 -4.7307628393173218e-01</leafValues></_>
        <_>
          <internalNodes>
            0 -1 668 -1.3443699572235346e-03</internalNodes>
          <leafValues>
            5.4581105709075928e-01 -1.5522570908069611e-01</leafValues></_>
        <_>
          <internalNodes>
            0 -1 506 1.0764519684016705e-03</internalNodes>
          <leafValues>
            1.6400317847728729e-01 -5.2567893266677856e-01</leafValues></_>
        <_>
          <internalNodes>
            0 -1 434 8.6756013333797455e-03</internalNodes>
          <leafValues>
            -1.8590849637985229e-01 3.5996741056442261e-01</leafValues></_>
        <_>
          <internalNodes>
            0 -1 614 -2.4292692251037806e-04</internalNodes>
          <leafValues>
            -3.7273743748664856e-01 1.9872255623340607e-01</leafValues></_>
        <_>
          <internalNodes>
            0 -1 405 6.2258674006443471e-05</internalNodes>
          <leafValues>
            -2.7716085314750671e-01 2.4242956936359406e-01</leafValues></_>
        <_>
          <internalNodes>
            0 -1 175 -8.5561227751895785e-04</internalNodes>
          <leafValues>
            6.5191555023193359e-01 -1.1057183891534805e-01</leafValues></_>
        <_>
          <internalNodes>
            0 -1 33 1.8095294944941998e-03</internalNodes>
          <leafValues>
            1.4572355151176453e-01 -5.5799633264541626e-01</leafValues></_>
        <_>
          <internalNodes>
            0 -1 40 -5.0946634262800217e-02</internalNodes>
          <leafValues>
            5.5892765522003174e-01 -1.3839067518711090e-01</leafValues></_>
        <_>
          <internalNodes>
            0 -1 137 -7.2152819484472275e-04</internalNodes>
          <leafValues>
            -4.8144900798797607e-01 1.5496291220188141e-01</leafValues></_></weakClassifiers></_>
    <!-- stage 5 -->
    <_>
      <maxWeakCount>24</maxWeakCount>
      <stageThreshold>-1.6459134817123413e+00</stageThreshold>
      <weakClassifiers>
        <_>
          <internalNodes>
            0 -1 345 -1.1445391923189163e-02</internalNodes>
          <leafValues>
            4.1699606180191040e-01 -4.2712551355361938e-01</leafValues></_>
        <_>
          <internalNodes>
            0 -1 325 -3.6648763343691826e-03</internalNodes>
          <leafValues>
            2.8796598315238953e-01 -4.0598055720329285e-01</leafValues></_>
        <_>
          <internalNodes>
            0 -1 315 -2.4424577131867409e-03</internalNodes>
          <leafValues>
            -6.6504228115081787e-01 1.5955527126789093e-01</leafValues></_>
        <_>
          <internalNodes>
            0 -1 328 4.4930172152817249e-03</internalNodes>
          <leafValues>
            1.4414128661155701e-01 -7.2483903169631958e-01</leafValues></_>
        <_>
          <internalNodes>
            0 -1 390 -4.7081978991627693e-03</internalNodes>
          <leafValues>
            -7.5899624824523926e-01 1.1778685450553894e-01</leafValues></_>
        <_>
          <internalNodes>
            0 -1 27 -1.8573287129402161e-01</internalNodes>
          <leafValues>
            6.4506441354751587e-01 -1.7558223009109497e-01</leafValues></_>
        <_>
          <internalNodes>
            0 -1 664 -8.2387405200279318e-06</internalNodes>
          <leafValues>
            2.3233632743358612e-01 -4.0532729029655457e-01</leafValues></_>
        <_>
          <internalNodes>
            0 -1 152 9.8237730562686920e-03</internalNodes>
          <leafValues>
            -2.2879533469676971e-01 3.7048482894897461e-01</leafValues></_>
        <_>
          <internalNodes>
            0 -1 424 9.4290741253644228e-04</internalNodes>
          <leafValues>
            1.0826557874679565e-01 -6.6438657045364380e-01</leafValues></_>
        <_>
          <internalNodes>
            0 -1 139 -1.5168702229857445e-03</internalNodes>
          <leafValues>
            -5.2492547035217285e-01 1.3780502974987030e-01</leafValues></_>
        <_>
          <internalNodes>
            0 -1 559 1.5998449176549911e-02</internalNodes>
          <leafValues>
            -1.4497125148773193e-01 5.0154459476470947e-01</leafValues></_>
        <_>
          <internalNodes>
            0 -1 203 -1.3299884274601936e-02</internalNodes>
          <leafValues>
            4.5880824327468872e-01 -1.5896558761596680e-01</leafValues></_>
        <_>
          <internalNodes>
            0 -1 612 1.8898432608693838e-04</internalNodes>
          <leafValues>
            1.5507104992866516e-01 -4.3807017803192139e-01</leafValues></_>
        <_>
          <internalNodes>
            0 -1 613 -2.3402750957757235e-04</internalNodes>
          <leafValues>
            -3.7050053477287292e-01 1.8653909862041473e-01</leafValues></_>
        <_>
          <internalNodes>
            0 -1 430 1.4786503743380308e-03</internalNodes>
          <leafValues>
            -1.7905257642269135e-01 3.9604476094245911e-01</leafValues></_>
        <_>
          <internalNodes>
            0 -1 160 4.5386838912963867e-01</internalNodes>
          <leafValues>
            1.0196549445390701e-01 -8.1571757793426514e-01</leafValues></_>
        <_>
          <internalNodes>
            0 -1 316 2.4990444071590900e-03</internalNodes>
          <leafValues>
            9.1704487800598145e-02 -6.5282475948333740e-01</leafValues></_>
        <_>
          <internalNodes>
            0 -1 455 7.4066645465791225e-03</internalNodes>
          <leafValues>
            7.4076451361179352e-02 -7.3646295070648193e-01</leafValues></_>
        <_>
          <internalNodes>
            0 -1 250 -3.6702834069728851e-02</internalNodes>
          <leafValues>
            3.7951236963272095e-01 -1.8094053864479065e-01</leafValues></_>
        <_>
          <internalNodes>
            0 -1 0 1.3580021914094687e-04</internalNodes>
          <leafValues>
            1.3885724544525146e-01 -4.8822236061096191e-01</leafValues></_>
        <_>
          <internalNodes>
            0 -1 0 -1.2887064076494426e-04</internalNodes>
          <leafValues>
            -4.8416915535926819e-01 1.6634948551654816e-01</leafValues></_>
        <_>
          <internalNodes>
            0 -1 446 8.1476166844367981e-02</internalNodes>
          <leafValues>
            -1.2566740810871124e-01 5.2637910842895508e-01</leafValues></_>
        <_>
          <internalNodes>
            0 -1 670 -6.7250808933749795e-04</internalNodes>
          <leafValues>
            5.9477281570434570e-01 -1.0744415223598480e-01</leafValues></_>
        <_>
          <internalNodes>
            0 -1 287 -5.3365183994174004e-03</internalNodes>
          <leafValues>
            -7.1489500999450684e-01 9.1325722634792328e-02</leafValues></_></weakClassifiers></_>
    <!-- stage 6 -->
    <_>
      <maxWeakCount>28</maxWeakCount>
      <stageThreshold>-1.6602361202239990e+00</stageThreshold>
      <weakClassifiers>
        <_>
          <internalNodes>
            0 -1 591 -1.7850288713816553e-05</internalNodes>
          <leafValues>
            2.1050836145877838e-01 -5.7717490196228027e-01</leafValues></_>
        <_>
          <internalNodes>
            0 -1 327 -1.2426674365997314e-03</internalNodes>
          <leafValues>
            2.0765349268913269e-01 -3.9961457252502441e-01</leafValues></_>
        <_>
          <internalNodes>
            0 -1 607 -1.8996130675077438e-03</internalNodes>
          <leafValues>
            -4.6241107583045959e-01 2.0652526617050171e-01</leafValues></_>
        <_>
          <internalNodes>
            0 -1 417 -2.5804133620113134e-03</internalNodes>
          <leafValues>
            -6.5041613578796387e-01 9.4650447368621826e-02</leafValues></_>
        <_>
          <internalNodes>
            0 -1 136 -3.4821655601263046e-02</internalNodes>
          <leafValues>
            4.1937726736068726e-01 -1.9046106934547424e-01</leafValues></_>
        <_>
          <internalNodes>
            0 -1 343 -1.4005942270159721e-02</internalNodes>
          <leafValues>
            3.6706957221031189e-01 -2.3046116530895233e-01</leafValues></_>
        <_>
          <internalNodes>
            0 -1 481 1.7051146132871509e-03</internalNodes>
          <leafValues>
            2.1901020407676697e-01 -4.9526631832122803e-01</leafValues></_>
        <_>
          <internalNodes>
            0 -1 625 1.1828158982098103e-02</internalNodes>
          <leafValues>
            -2.0385342836380005e-01 4.2733514308929443e-01</leafValues></_>
        <_>
          <internalNodes>
            0 -1 585 -1.0792370885610580e-02</internalNodes>
          <leafValues>
            4.9217522144317627e-01 -1.7903006076812744e-01</leafValues></_>
        <_>
          <internalNodes>
            0 -1 155 1.7186210607178509e-04</internalNodes>
          <leafValues>
            1.3466866314411163e-01 -5.9258013963699341e-01</leafValues></_>
        <_>
          <internalNodes>
            0 -1 153 -2.5843741605058312e-04</internalNodes>
          <leafValues>
            -4.7946125268936157e-01 1.5717460215091705e-01</leafValues></_>
        <_>
          <internalNodes>
            0 -1 602 -2.3678951038164087e-05</internalNodes>
          <leafValues>
            2.8002160787582397e-01 -3.1573429703712463e-01</leafValues></_>
        <_>
          <internalNodes>
            0 -1 317 -2.7979058213531971e-03</internalNodes>
          <leafValues>
            -4.8659849166870117e-01 1.5975488722324371e-01</leafValues></_>
        <_>
          <internalNodes>
            0 -1 104 3.2846415415406227e-03</internalNodes>
          <leafValues>
            -1.1304274946451187e-01 6.6255694627761841e-01</leafValues></_>
        <_>
          <internalNodes>
            0 -1 4 -8.8362075621262193e-04</internalNodes>
          <leafValues>
            -6.2119764089584351e-01 1.1189297586679459e-01</leafValues></_>
        <_>
          <internalNodes>
            0 -1 477 1.6431666153948754e-05</internalNodes>
          <leafValues>
            -2.3465916514396667e-01 3.0300989747047424e-01</leafValues></_>
        <_>
          <internalNodes>
            0 -1 119 -1.0785946622490883e-02</internalNodes>
          <leafValues>
            4.4323569536209106e-01 -1.5198937058448792e-01</leafValues></_>
        <_>
          <internalNodes>
            0 -1 693 -3.6603696644306183e-03</internalNodes>
          <leafValues>
            4.9393355846405029e-01 -1.4052909612655640e-01</leafValues></_>
        <_>
          <internalNodes>
            0 -1 364 -2.0242149475961924e-03</internalNodes>
          <leafValues>
            -7.2244441509246826e-01 9.8050020635128021e-02</leafValues></_>
        <_>
          <internalNodes>
            0 -1 201 -1.2604027986526489e-01</internalNodes>
          <leafValues>
            5.0147289037704468e-01 -1.4213325083255768e-01</leafValues></_>
        <_>
          <internalNodes>
            0 -1 344 -7.8116040676832199e-03</internalNodes>
          <leafValues>
            2.5796434283256531e-01 -2.8123071789741516e-01</leafValues></_>
        <_>
          <internalNodes>
            0 -1 168 3.1116097234189510e-03</internalNodes>
          <leafValues>
            -1.4549072086811066e-01 4.6162793040275574e-01</leafValues></_>
        <_>
          <internalNodes>
            0 -1 363 -3.0874051153659821e-02</internalNodes>
          <leafValues>
            3.3451753854751587e-01 -2.3311199247837067e-01</leafValues></_>
        <_>
          <internalNodes>
            0 -1 18 2.2303739190101624e-01</internalNodes>
          <leafValues>
            -9.8119348287582397e-02 6.4905565977096558e-01</leafValues></_>
        <_>
          <internalNodes>
            0 -1 4 3.7251040339469910e-04</internalNodes>
          <leafValues>
            1.6435283422470093e-01 -5.0718218088150024e-01</leafValues></_>
        <_>
          <internalNodes>
            0 -1 508 -5.8450619690120220e-04</internalNodes>
          <leafValues>
            1.8698377907276154e-01 -3.0423983931541443e-01</leafValues></_>
        <_>
          <internalNodes>
            0 -1 665 -2.9919482767581940e-03</internalNodes>
          <leafValues>
            -5.3673553466796875e-01 1.2157905846834183e-01</leafValues></_>
        <_>
          <internalNodes>
            0 -1 303 1.3442821800708771e-03</internalNodes>
          <leafValues>
            -2.0799753069877625e-01 3.1109559535980225e-01</leafValues></_></weakClassifiers></_>
    <!-- stage 7 -->
    <_>
      <maxWeakCount>28</maxWeakCount>
      <stageThreshold>-1.4548927545547485e+00</stageThreshold>
      <weakClassifiers>
        <_>
          <internalNodes>
            0 -1 320 -5.3886473178863525e-03</internalNodes>
          <leafValues>
            2.7440738677978516e-01 -4.5201852917671204e-01</leafValues></_>
        <_>
          <internalNodes>
            0 -1 418 -3.9534978568553925e-03</internalNodes>
          <leafValues>
            -6.7859941720962524e-01 1.3821433484554291e-01</leafValues></_>
        <_>
          <internalNodes>
            0 -1 456 4.8242998309433460e-03</internalNodes>
          <leafValues>
            1.1315644532442093e-01 -7.3326778411865234e-01</leafValues></_>
        <_>
          <internalNodes>
            0 -1 718 6.8959360942244530e-03</internalNodes>
          <leafValues>
            -2.0123393833637238e-01 4.0389415621757507e-01</leafValues></_>
        <_>
          <internalNodes>
            0 -1 285 -8.6417421698570251e-03</internalNodes>
          <leafValues>
            3.3519783616065979e-01 -2.5500127673149109e-01</leafValues></_>
        <_>
          <internalNodes>
            0 -1 388 -2.6227883063256741e-03</internalNodes>
          <leafValues>
            -7.2073376178741455e-01 8.0021634697914124e-02</leafValues></_>
        <_>
          <internalNodes>
            0 -1 164 -4.1614383459091187e-02</internalNodes>
          <leafValues>
            4.4000351428985596e-01 -1.5346340835094452e-01</leafValues></_>
        <_>
          <internalNodes>
            0 -1 275 -9.6111577004194260e-03</internalNodes>
          <leafValues>
            4.2859107255935669e-01 -1.5505464375019073e-01</leafValues></_>
        <_>
          <internalNodes>
            0 -1 29 9.0109521988779306e-04</internalNodes>
          <leafValues>
            1.4033189415931702e-01 -5.0395017862319946e-01</leafValues></_>
        <_>
          <internalNodes>
            0 -1 230 1.7934789881110191e-02</internalNodes>
          <leafValues>
            8.7876394391059875e-02 -6.4219617843627930e-01</leafValues></_>
        <_>
          <internalNodes>
            0 -1 259 -4.5795336365699768e-02</internalNodes>
          <leafValues>
            4.9309310317039490e-01 -1.3293580710887909e-01</leafValues></_>
        <_>
          <internalNodes>
            0 -1 414 7.0716919253754895e-06</internalNodes>
          <leafValues>
            -3.0674436688423157e-01 2.1765212714672089e-01</leafValues></_>
        <_>
          <internalNodes>
            0 -1 31 2.0178394019603729e-01</internalNodes>
          <leafValues>
            7.2010986506938934e-02 -9.2775386571884155e-01</leafValues></_>
        <_>
          <internalNodes>
            0 -1 578 1.5031382441520691e-02</internalNodes>
          <leafValues>
            -2.2387465834617615e-01 2.7123013138771057e-01</leafValues></_>
        <_>
          <internalNodes>
            0 -1 692 -3.7398887798190117e-03</internalNodes>
          <leafValues>
            3.9453551173210144e-01 -1.5531499683856964e-01</leafValues></_>
        <_>
          <internalNodes>
            0 -1 684 3.3892574720084667e-03</internalNodes>
          <leafValues>
            -1.6434234380722046e-01 3.8075014948844910e-01</leafValues></_>
        <_>
          <internalNodes>
            0 -1 350 -2.7693419251590967e-03</internalNodes>
          <leafValues>
            -7.2985577583312988e-01 9.0051651000976562e-02</leafValues></_>
        <_>
          <internalNodes>
            0 -1 267 -3.4489680547267199e-04</internalNodes>
          <leafValues>
            -4.4580414891242981e-01 1.2440946698188782e-01</leafValues></_>
        <_>
          <internalNodes>
            0 -1 532 -4.9032540991902351e-03</internalNodes>
          <leafValues>
            -7.8424352407455444e-01 6.4213372766971588e-02</leafValues></_>
        <_>
          <internalNodes>
            0 -1 699 1.0343911126255989e-03</internalNodes>
          <leafValues>
            -1.9252713024616241e-01 3.1734576821327209e-01</leafValues></_>
        <_>
          <internalNodes>
            0 -1 154 -5.5130722466856241e-04</internalNodes>
          <leafValues>
            -5.0081318616867065e-01 1.0527134686708450e-01</leafValues></_>
        <_>
          <internalNodes>
            0 -1 509 -5.9677371609723195e-05</internalNodes>
          <leafValues>
            1.5085427463054657e-01 -3.5507988929748535e-01</leafValues></_>
        <_>
          <internalNodes>
            0 -1 156 4.8408494330942631e-04</internalNodes>
          <leafValues>
            1.1339604109525681e-01 -4.8387923836708069e-01</leafValues></_>
        <_>
          <internalNodes>
            0 -1 342 -1.3280099257826805e-02</internalNodes>
          <leafValues>
            3.5358539223670959e-01 -1.6278076171875000e-01</leafValues></_>
        <_>
          <internalNodes>
            0 -1 639 -8.3460621535778046e-03</internalNodes>
          <leafValues>
            -6.9542407989501953e-01 8.4307558834552765e-02</leafValues></_>
        <_>
          <internalNodes>
            0 -1 111 -4.4019077904522419e-03</internalNodes>
          <leafValues>
            3.7864124774932861e-01 -1.8252067267894745e-01</leafValues></_>
        <_>
          <internalNodes>
            0 -1 105 2.6774266734719276e-03</internalNodes>
          <leafValues>
            -1.3523058593273163e-01 5.2166140079498291e-01</leafValues></_>
        <_>
          <internalNodes>
            0 -1 239 4.3046429753303528e-02</internalNodes>
          <leafValues>
            -1.2730284035205841e-01 4.7386115789413452e-01</leafValues></_></weakClassifiers></_>
    <!-- stage 8 -->
    <_>
      <maxWeakCount>33</maxWeakCount>
      <stageThreshold>-1.4724431037902832e+00</stageThreshold>
      <weakClassifiers>
        <_>
          <internalNodes>
            0 -1 458 -1.5539459418505430e-03</internalNodes>
          <leafValues>
            3.0849614739418030e-01 -3.7743189930915833e-01</leafValues></_>
        <_>
          <internalNodes>
            0 -1 283 -3.4285463392734528e-02</internalNodes>
          <leafValues>
            -6.0384225845336914e-01 1.2014196813106537e-01</leafValues></_>
        <_>
          <internalNodes>
            0 -1 637 -1.7531868070363998e-03</internalNodes>
          <leafValues>
            2.3486414551734924e-01 -3.1958127021789551e-01</leafValues></_>
        <_>
          <internalNodes>
            0 -1 387 -1.9672040361911058e-03</internalNodes>
          <leafValues>
            -5.7827442884445190e-01 1.2302461266517639e-01</leafValues></_>
        <_>
          <internalNodes>
            0 -1 52 2.2767333313822746e-02</internalNodes>
          <leafValues>
            -1.3370555639266968e-01 5.3104764223098755e-01</leafValues></_>
        <_>
          <internalNodes>
            0 -1 61 -7.6668555848300457e-03</internalNodes>
          <leafValues>
            3.3143514394760132e-01 -2.8071302175521851e-01</leafValues></_>
        <_>
          <internalNodes>
            0 -1 330 -4.5650764368474483e-03</internalNodes>
          <leafValues>
            -7.2537040710449219e-01 7.8348591923713684e-02</leafValues></_>
        <_>
          <internalNodes>
            0 -1 103 5.0810202956199646e-03</internalNodes>
          <leafValues>
            -1.7702627182006836e-01 3.5197615623474121e-01</leafValues></_>
        <_>
          <internalNodes>
            0 -1 683 4.2077302932739258e-03</internalNodes>
          <leafValues>
            -1.4649964869022369e-01 4.2570891976356506e-01</leafValues></_>
        <_>
          <internalNodes>
            0 -1 391 3.8462677039206028e-03</internalNodes>
          <leafValues>
            8.7875224649906158e-02 -6.1047440767288208e-01</leafValues></_>
        <_>
          <internalNodes>
            0 -1 46 -3.9889212348498404e-04</internalNodes>
          <leafValues>
            -4.8399507999420166e-01 1.0828476399183273e-01</leafValues></_>
        <_>
          <internalNodes>
            0 -1 500 1.0841258801519871e-02</internalNodes>
          <leafValues>
            -1.4774772524833679e-01 3.7272745370864868e-01</leafValues></_>
        <_>
          <internalNodes>
            0 -1 221 3.3790629822760820e-04</internalNodes>
          <leafValues>
            1.2845753133296967e-01 -4.4223862886428833e-01</leafValues></_>
        <_>
          <internalNodes>
            0 -1 147 -1.6936153173446655e-02</internalNodes>
          <leafValues>
            2.8254210948944092e-01 -1.9804640114307404e-01</leafValues></_>
        <_>
          <internalNodes>
            0 -1 695 -1.7409923020750284e-03</internalNodes>
          <leafValues>
            3.1748083233833313e-01 -1.9306623935699463e-01</leafValues></_>
        <_>
          <internalNodes>
            0 -1 708 -1.8165055371355265e-04</internalNodes>
          <leafValues>
            -4.8135441541671753e-01 1.3551209867000580e-01</leafValues></_>
        <_>
          <internalNodes>
            0 -1 69 -3.3503051381558180e-03</internalNodes>
          <leafValues>
            5.4554557800292969e-01 -1.1809417605400085e-01</leafValues></_>
        <_>
          <internalNodes>
            0 -1 568 -3.3173081465065479e-03</internalNodes>
          <leafValues>
            -5.1971906423568726e-01 1.2183038890361786e-01</leafValues></_>
        <_>
          <internalNodes>
            0 -1 220 -3.3652171259745955e-04</internalNodes>
          <leafValues>
            -5.8060002326965332e-01 9.0412490069866180e-02</leafValues></_>
        <_>
          <internalNodes>
            0 -1 365 -3.9111200021579862e-04</internalNodes>
          <leafValues>
            2.1081660687923431e-01 -2.4067972600460052e-01</leafValues></_>
        <_>
          <internalNodes>
            0 -1 621 5.3587211295962334e-03</internalNodes>
          <leafValues>
            -1.0019904375076294e-01 5.7637357711791992e-01</leafValues></_>
        <_>
          <internalNodes>
            0 -1 563 6.1951284296810627e-03</internalNodes>
          <leafValues>
            9.3990869820117950e-02 -6.8299835920333862e-01</leafValues></_>
        <_>
          <internalNodes>
            0 -1 584 7.0535329541598912e-06</internalNodes>
          <leafValues>
            -2.1101275086402893e-01 2.5666210055351257e-01</leafValues></_>
        <_>
          <internalNodes>
            0 -1 715 5.9074405580759048e-03</internalNodes>
          <leafValues>
            -1.3892486691474915e-01 3.7084734439849854e-01</leafValues></_>
        <_>
          <internalNodes>
            0 -1 579 5.8248527348041534e-03</internalNodes>
          <leafValues>
            -1.8017365038394928e-01 3.0256083607673645e-01</leafValues></_>
        <_>
          <internalNodes>
            0 -1 252 -2.6100620627403259e-02</internalNodes>
          <leafValues>
            2.0721122622489929e-01 -2.8819748759269714e-01</leafValues></_>
        <_>
          <internalNodes>
            0 -1 167 2.5217689573764801e-02</internalNodes>
          <leafValues>
            -1.7261792719364166e-01 4.1262754797935486e-01</leafValues></_>
        <_>
          <internalNodes>
            0 -1 640 -4.4621745473705232e-04</internalNodes>
          <leafValues>
            2.8001877665519714e-01 -2.0230519771575928e-01</leafValues></_>
        <_>
          <internalNodes>
            0 -1 28 4.9594700336456299e-02</internalNodes>
          <leafValues>
            7.9272717237472534e-02 -7.3715716600418091e-01</leafValues></_>
        <_>
          <internalNodes>
            0 -1 256 -3.1131573021411896e-02</internalNodes>
          <leafValues>
            -6.7932105064392090e-01 6.7543029785156250e-02</leafValues></_>
        <_>
          <internalNodes>
            0 -1 132 -1.9658822566270828e-03</internalNodes>
          <leafValues>
            5.4170453548431396e-01 -1.1128629744052887e-01</leafValues></_>
        <_>
          <internalNodes>
            0 -1 158 -7.7013269765302539e-04</internalNodes>
          <leafValues>
            -5.4855006933212280e-01 1.0519178211688995e-01</leafValues></_>
        <_>
          <internalNodes>
            0 -1 55 -4.6679014340043068e-03</internalNodes>
          <leafValues>
            5.2082949876785278e-01 -1.1927837133407593e-01</leafValues></_></weakClassifiers></_>
    <!-- stage 9 -->
    <_>
      <maxWeakCount>34</maxWeakCount>
      <stageThreshold>-1.4941029548645020e+00</stageThreshold>
      <weakClassifiers>
        <_>
          <internalNodes>
            0 -1 306 -1.3266351073980331e-02</internalNodes>
          <leafValues>
            3.0315133929252625e-01 -3.9095592498779297e-01</leafValues></_>
        <_>
          <internalNodes>
            0 -1 148 1.9035590812563896e-02</internalNodes>
          <leafValues>
            -2.1679075062274933e-01 3.1549426913261414e-01</leafValues></_>
        <_>
          <internalNodes>
            0 -1 211 -5.5442005395889282e-04</internalNodes>
          <leafValues>
            -4.1367191076278687e-01 1.5138913691043854e-01</leafValues></_>
        <_>
          <internalNodes>
            0 -1 263 2.7642250061035156e-03</internalNodes>
          <leafValues>
            1.3965237140655518e-01 -5.7577776908874512e-01</leafValues></_>
        <_>
          <internalNodes>
            0 -1 713 7.0540201850235462e-03</internalNodes>
          <leafValues>
            -1.9502559304237366e-01 3.5391286015510559e-01</leafValues></_>
        <_>
          <internalNodes>
            0 -1 495 -5.4637067019939423e-02</internalNodes>
          <leafValues>
            5.2101540565490723e-01 -1.5174220502376556e-01</leafValues></_>
        <_>
          <internalNodes>
            0 -1 271 2.9946470260620117e-01</internalNodes>
          <leafValues>
            -4.5968543738126755e-02 6.9496309757232666e-01</leafValues></_>
        <_>
          <internalNodes>
            0 -1 122 1.0358752915635705e-03</internalNodes>
          <leafValues>
            -1.1996964365243912e-01 4.0983232855796814e-01</leafValues></_>
        <_>
          <internalNodes>
            0 -1 116 -2.5255265645682812e-03</internalNodes>
          <leafValues>
            4.3172878026962280e-01 -1.8391954898834229e-01</leafValues></_>
        <_>
          <internalNodes>
            0 -1 487 -2.9673805693164468e-04</internalNodes>
          <leafValues>
            1.7158031463623047e-01 -3.5781741142272949e-01</leafValues></_>
        <_>
          <internalNodes>
            0 -1 586 -8.0572646111249924e-03</internalNodes>
          <leafValues>
            3.2797661423683167e-01 -1.8355117738246918e-01</leafValues></_>
        <_>
          <internalNodes>
            0 -1 298 -1.6931470483541489e-02</internalNodes>
          <leafValues>
            3.8751339912414551e-01 -1.6734406352043152e-01</leafValues></_>
        <_>
          <internalNodes>
            0 -1 0 3.8023159140720963e-04</internalNodes>
          <leafValues>
            8.7910987436771393e-02 -7.2184234857559204e-01</leafValues></_>
        <_>
          <internalNodes>
            0 -1 3 -4.9260095693171024e-04</internalNodes>
          <leafValues>
            -4.9357512593269348e-01 1.0441603511571884e-01</leafValues></_>
        <_>
          <internalNodes>
            0 -1 99 -1.4780440833419561e-03</internalNodes>
          <leafValues>
            5.3247690200805664e-01 -1.0269967466592789e-01</leafValues></_>
        <_>
          <internalNodes>
            0 -1 643 -2.5978935882449150e-03</internalNodes>
          <leafValues>
            -4.8709744215011597e-01 1.1979053169488907e-01</leafValues></_>
        <_>
          <internalNodes>
            0 -1 94 2.1072437521070242e-03</internalNodes>
          <leafValues>
            -1.5188916027545929e-01 3.5374182462692261e-01</leafValues></_>
        <_>
          <internalNodes>
            0 -1 238 -1.3874213397502899e-01</internalNodes>
          <leafValues>
            4.9720996618270874e-01 -1.2638993561267853e-01</leafValues></_>
        <_>
          <internalNodes>
            0 -1 322 -1.8643353832885623e-03</internalNodes>
          <leafValues>
            -5.2561581134796143e-01 1.1216723173856735e-01</leafValues></_>
        <_>
          <internalNodes>
            0 -1 573 -3.6254795268177986e-03</internalNodes>
          <leafValues>
            2.8704836964607239e-01 -1.9389264285564423e-01</leafValues></_>
        <_>
          <internalNodes>
            0 -1 402 -3.0944885686039925e-02</internalNodes>
          <leafValues>
            5.6728667020797729e-01 -9.7984515130519867e-02</leafValues></_>
        <_>
          <internalNodes>
            0 -1 600 4.9814591184258461e-03</internalNodes>
          <leafValues>
            8.1613086163997650e-02 -7.0956212282180786e-01</leafValues></_>
        <_>
          <internalNodes>
            0 -1 349 -2.5217649526894093e-03</internalNodes>
          <leafValues>
            2.6510134339332581e-01 -1.9365544617176056e-01</leafValues></_>
        <_>
          <internalNodes>
            0 -1 385 4.0129343979060650e-03</internalNodes>
          <leafValues>
            -9.5468945801258087e-02 6.4301598072052002e-01</leafValues></_>
        <_>
          <internalNodes>
            0 -1 590 4.3145176023244858e-03</internalNodes>
          <leafValues>
            1.1431220918893814e-01 -6.1470115184783936e-01</leafValues></_>
        <_>
          <internalNodes>
            0 -1 196 -1.9888632232323289e-04</internalNodes>
          <leafValues>
            -3.3290728926658630e-01 1.5807479619979858e-01</leafValues></_>
        <_>
          <internalNodes>
            0 -1 273 1.9385359482839704e-03</internalNodes>
          <leafValues>
            -2.0871219038963318e-01 2.5270605087280273e-01</leafValues></_>
        <_>
          <internalNodes>
            0 -1 120 -6.1721382662653923e-03</internalNodes>
          <leafValues>
            -5.6201392412185669e-01 9.5844730734825134e-02</leafValues></_>
        <_>
          <internalNodes>
            0 -1 694 -5.8051254600286484e-03</internalNodes>
          <leafValues>
            5.6029158830642700e-01 -1.1341386288404465e-01</leafValues></_>
        <_>
          <internalNodes>
            0 -1 409 -5.3784297779202461e-03</internalNodes>
          <leafValues>
            -6.1617881059646606e-01 9.6327856183052063e-02</leafValues></_>
        <_>
          <internalNodes>
            0 -1 686 2.2537494078278542e-03</internalNodes>
          <leafValues>
            -1.6418068110942841e-01 3.3159402012825012e-01</leafValues></_>
        <_>
          <internalNodes>
            0 -1 681 -2.2125099785625935e-03</internalNodes>
          <leafValues>
            3.1676933169364929e-01 -1.6945578157901764e-01</leafValues></_>
        <_>
          <internalNodes>
            0 -1 177 5.4686315357685089e-02</internalNodes>
          <leafValues>
            8.0005630850791931e-02 -6.7073529958724976e-01</leafValues></_>
        <_>
          <internalNodes>
            0 -1 516 -1.8867017934098840e-04</internalNodes>
          <leafValues>
            -4.5462787151336670e-01 1.0427829623222351e-01</leafValues></_></weakClassifiers></_>
    <!-- stage 10 -->
    <_>
      <maxWeakCount>40</maxWeakCount>
      <stageThreshold>-1.2763475179672241e+00</stageThreshold>
      <weakClassifiers>
        <_>
          <internalNodes>
            0 -1 451 -1.7505385912954807e-03</internalNodes>
          <leafValues>
            3.1587058305740356e-01 -2.9956161975860596e-01</leafValues></_>
        <_>
          <internalNodes>
            0 -1 593 -1.1095800437033176e-03</internalNodes>
          <leafValues>
            1.8316005170345306e-01 -3.9813446998596191e-01</leafValues></_>
        <_>
          <internalNodes>
            0 -1 68 -5.4916303604841232e-02</internalNodes>
          <leafValues>
            -6.0260993242263794e-01 1.0632740706205368e-01</leafValues></_>
        <_>
          <internalNodes>
            0 -1 115 7.2654115501791239e-04</internalNodes>
          <leafValues>
            -1.6316735744476318e-01 3.8808330893516541e-01</leafValues></_>
        <_>
          <internalNodes>
            0 -1 113 -1.2087542563676834e-03</internalNodes>
          <leafValues>
            5.0111347436904907e-01 -1.5867339074611664e-01</leafValues></_>
        <_>
          <internalNodes>
            0 -1 463 1.2318585067987442e-03</internalNodes>
          <leafValues>
            1.1028555035591125e-01 -7.0382058620452881e-01</leafValues></_>
        <_>
          <internalNodes>
            0 -1 25 -2.2386339306831360e-01</internalNodes>
          <leafValues>
            4.5252484083175659e-01 -1.7140440642833710e-01</leafValues></_>
        <_>
          <internalNodes>
            0 -1 301 1.5821382403373718e-02</internalNodes>
          <leafValues>
            -1.0193876922130585e-01 4.7575089335441589e-01</leafValues></_>
        <_>
          <internalNodes>
            0 -1 386 -1.6161252278834581e-03</internalNodes>
          <leafValues>
            -5.0830304622650146e-01 9.7117654979228973e-02</leafValues></_>
        <_>
          <internalNodes>
            0 -1 76 5.6907901307567954e-04</internalNodes>
          <leafValues>
            -1.2437028437852859e-01 5.7101786136627197e-01</leafValues></_>
        <_>
          <internalNodes>
            0 -1 131 5.0505738705396652e-02</internalNodes>
          <leafValues>
            -7.0740595459938049e-02 6.1103409528732300e-01</leafValues></_>
        <_>
          <internalNodes>
            0 -1 469 -9.3952640891075134e-03</internalNodes>
          <leafValues>
            2.8960996866226196e-01 -2.4625560641288757e-01</leafValues></_>
        <_>
          <internalNodes>
            0 -1 190 -4.6864850446581841e-03</internalNodes>
          <leafValues>
            -6.2087905406951904e-01 8.0591224133968353e-02</leafValues></_>
        <_>
          <internalNodes>
            0 -1 87 3.5319784656167030e-03</internalNodes>
          <leafValues>
            -1.3461725413799286e-01 4.3209677934646606e-01</leafValues></_>
        <_>
          <internalNodes>
            0 -1 41 1.0267330799251795e-03</internalNodes>
          <leafValues>
            1.3034538924694061e-01 -5.3274333477020264e-01</leafValues></_>
        <_>
          <internalNodes>
            0 -1 631 4.8428676091134548e-03</internalNodes>
          <leafValues>
            -1.8853117525577545e-01 2.6557639241218567e-01</leafValues></_>
        <_>
          <internalNodes>
            0 -1 552 -3.5152859054505825e-03</internalNodes>
          <leafValues>
            -6.4165979623794556e-01 9.8784841597080231e-02</leafValues></_>
        <_>
          <internalNodes>
            0 -1 505 8.3518816609284841e-06</internalNodes>
          <leafValues>
            -1.8691205978393555e-01 2.8097969293594360e-01</leafValues></_>
        <_>
          <internalNodes>
            0 -1 42 -8.6545548401772976e-04</internalNodes>
          <leafValues>
            -3.3960136771202087e-01 1.5510269999504089e-01</leafValues></_>
        <_>
          <internalNodes>
            0 -1 64 -7.0551829412579536e-03</internalNodes>
          <leafValues>
            3.3094707131385803e-01 -1.4861270785331726e-01</leafValues></_>
        <_>
          <internalNodes>
            0 -1 546 -1.9662708509713411e-03</internalNodes>
          <leafValues>
            3.6360827088356018e-01 -1.3433974981307983e-01</leafValues></_>
        <_>
          <internalNodes>
            0 -1 354 6.7182972998125479e-06</internalNodes>
          <leafValues>
            -2.0589412748813629e-01 2.2954078018665314e-01</leafValues></_>
        <_>
          <internalNodes>
            0 -1 276 -1.8048822879791260e-02</internalNodes>
          <leafValues>
            1.3363549113273621e-01 -3.1809023022651672e-01</leafValues></_>
        <_>
          <internalNodes>
            0 -1 341 6.5117046236991882e-02</internalNodes>
          <leafValues>
            -8.4832862019538879e-02 6.8707841634750366e-01</leafValues></_>
        <_>
          <internalNodes>
            0 -1 292 8.8089029304683208e-04</internalNodes>
          <leafValues>
            -1.4598870277404785e-01 3.2412201166152954e-01</leafValues></_>
        <_>
          <internalNodes>
            0 -1 127 -3.2032091170549393e-02</internalNodes>
          <leafValues>
            4.5931422710418701e-01 -1.1604525893926620e-01</leafValues></_>
        <_>
          <internalNodes>
            0 -1 112 1.8241880461573601e-02</internalNodes>
          <leafValues>
            8.0246351659297943e-02 -7.2705364227294922e-01</leafValues></_>
        <_>
          <internalNodes>
            0 -1 157 -2.6603991864249110e-04</internalNodes>
          <leafValues>
            -3.8978055119514465e-01 1.2463991343975067e-01</leafValues></_>
        <_>
          <internalNodes>
            0 -1 222 4.2417296208441257e-03</internalNodes>
          <leafValues>
            -1.0935641080141068e-01 4.6481013298034668e-01</leafValues></_>
        <_>
          <internalNodes>
            0 -1 176 -2.6919110678136349e-03</internalNodes>
          <leafValues>
            3.3968845009803772e-01 -1.4265942573547363e-01</leafValues></_>
        <_>
          <internalNodes>
            0 -1 197 -3.9755471516400576e-04</internalNodes>
          <leafValues>
            -4.2253136634826660e-01 1.2440661340951920e-01</leafValues></_>
        <_>
          <internalNodes>
            0 -1 376 7.5867883424507454e-06</internalNodes>
          <leafValues>
            -2.0387735962867737e-01 2.6523986458778381e-01</leafValues></_>
        <_>
          <internalNodes>
            0 -1 270 2.1034213714301586e-03</internalNodes>
          <leafValues>
            -2.1288213133811951e-01 2.7731639146804810e-01</leafValues></_>
        <_>
          <internalNodes>
            0 -1 244 -2.5235320208594203e-04</internalNodes>
          <leafValues>
            -4.0669226646423340e-01 1.1766424030065536e-01</leafValues></_>
        <_>
          <internalNodes>
            0 -1 700 -1.2863716110587120e-03</internalNodes>
          <leafValues>
            2.8104904294013977e-01 -1.7710328102111816e-01</leafValues></_>
        <_>
          <internalNodes>
            0 -1 159 -6.2716996762901545e-04</internalNodes>
          <leafValues>
            2.2684805095195770e-01 -2.6083526015281677e-01</leafValues></_>
        <_>
          <internalNodes>
            0 -1 534 -1.1520786210894585e-03</internalNodes>
          <leafValues>
            -5.8132058382034302e-01 8.6689583957195282e-02</leafValues></_>
        <_>
          <internalNodes>
            0 -1 436 -1.5792644117027521e-03</internalNodes>
          <leafValues>
            4.2197009921073914e-01 -1.2429535388946533e-01</leafValues></_>
        <_>
          <internalNodes>
            0 -1 502 -2.6522818952798843e-03</internalNodes>
          <leafValues>
            -4.6501889824867249e-01 1.1296081542968750e-01</leafValues></_>
        <_>
          <internalNodes>
            0 -1 360 1.2783402577042580e-02</internalNodes>
          <leafValues>
            -8.4486857056617737e-02 7.3575490713119507e-01</leafValues></_></weakClassifiers></_>
    <!-- stage 11 -->
    <_>
      <maxWeakCount>40</maxWeakCount>
      <stageThreshold>-1.5145996809005737e+00</stageThreshold>
      <weakClassifiers>
        <_>
          <internalNodes>
            0 -1 410 -4.3284809216856956e-03</internalNodes>
          <leafValues>
            2.0373027026653290e-01 -4.6864685416221619e-01</leafValues></_>
        <_>
          <internalNodes>
            0 -1 588 8.4198359400033951e-03</internalNodes>
          <leafValues>
            9.6422128379344940e-02 -6.3437920808792114e-01</leafValues></_>
        <_>
          <internalNodes>
            0 -1 468 2.4093556567095220e-04</internalNodes>
          <leafValues>
            -2.3513656854629517e-01 2.8025239706039429e-01</leafValues></_>
        <_>
          <internalNodes>
            0 -1 326 9.5374898592126556e-06</internalNodes>
          <leafValues>
            -3.8248661160469055e-01 1.8970938026905060e-01</leafValues></_>
        <_>
          <internalNodes>
            0 -1 708 1.3143997057341039e-04</internalNodes>
          <leafValues>
            1.2588366866111755e-01 -4.5390063524246216e-01</leafValues></_>
        <_>
          <internalNodes>
            0 -1 84 7.9727708362042904e-04</internalNodes>
          <leafValues>
            -1.3468748331069946e-01 4.1592663526535034e-01</leafValues></_>
        <_>
          <internalNodes>
            0 -1 358 -4.5032560592517257e-04</internalNodes>
          <leafValues>
            -4.1154626011848450e-01 1.1775190383195877e-01</leafValues></_>
        <_>
          <internalNodes>
            0 -1 56 3.4698778763413429e-03</internalNodes>
          <leafValues>
            -1.4637243747711182e-01 3.7315171957015991e-01</leafValues></_>
        <_>
          <internalNodes>
            0 -1 432 -1.9217681139707565e-02</internalNodes>
          <leafValues>
            4.2391049861907959e-01 -1.4176981151103973e-01</leafValues></_>
        <_>
          <internalNodes>
            0 -1 422 1.6349365469068289e-03</internalNodes>
          <leafValues>
            1.3650354743003845e-01 -5.4324525594711304e-01</leafValues></_>
        <_>
          <internalNodes>
            0 -1 691 2.4010431952774525e-03</internalNodes>
          <leafValues>
            -2.3009467124938965e-01 2.5868493318557739e-01</leafValues></_>
        <_>
          <internalNodes>
            0 -1 465 4.6203024685382843e-03</internalNodes>
          <leafValues>
            -1.2517580389976501e-01 3.7115523219108582e-01</leafValues></_>
        <_>
          <internalNodes>
            0 -1 253 3.2377344369888306e-01</internalNodes>
          <leafValues>
            -9.6087232232093811e-02 6.4763462543487549e-01</leafValues></_>
        <_>
          <internalNodes>
            0 -1 473 8.4746268112212420e-04</internalNodes>
          <leafValues>
            1.6520057618618011e-01 -3.7130424380302429e-01</leafValues></_>
        <_>
          <internalNodes>
            0 -1 722 1.7330833361484110e-04</internalNodes>
          <leafValues>
            8.4110684692859650e-02 -4.8831358551979065e-01</leafValues></_>
        <_>
          <internalNodes>
            0 -1 257 2.8854891657829285e-02</internalNodes>
          <leafValues>
            7.3880583047866821e-02 -6.6773813962936401e-01</leafValues></_>
        <_>
          <internalNodes>
            0 -1 160 2.8135907649993896e-01</internalNodes>
          <leafValues>
            9.9259637296199799e-02 -5.1951539516448975e-01</leafValues></_>
        <_>
          <internalNodes>
            0 -1 277 1.2888520956039429e-02</internalNodes>
          <leafValues>
            1.2330947816371918e-01 -4.0560159087181091e-01</leafValues></_>
        <_>
          <internalNodes>
            0 -1 457 -4.1748569346964359e-03</internalNodes>
          <leafValues>
            2.5745376944541931e-01 -2.0529156923294067e-01</leafValues></_>
        <_>
          <internalNodes>
            0 -1 661 1.4858262147754431e-03</internalNodes>
          <leafValues>
            -1.7257253825664520e-01 3.0649709701538086e-01</leafValues></_>
        <_>
          <internalNodes>
            0 -1 24 -1.0182693600654602e-01</internalNodes>
          <leafValues>
            3.8896229863166809e-01 -1.3292774558067322e-01</leafValues></_>
        <_>
          <internalNodes>
            0 -1 44 1.1454445309937000e-02</internalNodes>
          <leafValues>
            -1.6664531826972961e-01 3.6310955882072449e-01</leafValues></_>
        <_>
          <internalNodes>
            0 -1 37 -1.1892268434166908e-02</internalNodes>
          <leafValues>
            -6.1176359653472900e-01 9.6731632947921753e-02</leafValues></_>
        <_>
          <internalNodes>
            0 -1 166 -7.2022192180156708e-03</internalNodes>
          <leafValues>
            3.7162193655967712e-01 -1.5276874601840973e-01</leafValues></_>
        <_>
          <internalNodes>
            0 -1 378 -7.0125581696629524e-03</internalNodes>
          <leafValues>
            2.8977051377296448e-01 -1.8244454264640808e-01</leafValues></_>
        <_>
          <internalNodes>
            0 -1 114 1.2601953931152821e-03</internalNodes>
          <leafValues>
            -1.1329830437898636e-01 5.0278460979461670e-01</leafValues></_>
        <_>
          <internalNodes>
            0 -1 570 -1.8179735634475946e-03</internalNodes>
          <leafValues>
            -5.9665137529373169e-01 1.0122224688529968e-01</leafValues></_>
        <_>
          <internalNodes>
            0 -1 474 -4.4477614574134350e-04</internalNodes>
          <leafValues>
            -3.2096502184867859e-01 1.4194551110267639e-01</leafValues></_>
        <_>
          <internalNodes>
            0 -1 383 -2.0721959881484509e-03</internalNodes>
          <leafValues>
            -4.5459759235382080e-01 9.9720150232315063e-02</leafValues></_>
        <_>
          <internalNodes>
            0 -1 599 -5.0487788394093513e-03</internalNodes>
          <leafValues>
            -8.2179158926010132e-01 4.9193937331438065e-02</leafValues></_>
        <_>
          <internalNodes>
            0 -1 674 -3.3374247141182423e-03</internalNodes>
          <leafValues>
            5.5580067634582520e-01 -9.3565970659255981e-02</leafValues></_>
        <_>
          <internalNodes>
            0 -1 229 -1.9561727531254292e-03</internalNodes>
          <leafValues>
            2.9585301876068115e-01 -1.4812019467353821e-01</leafValues></_>
        <_>
          <internalNodes>
            0 -1 657 3.0640428885817528e-03</internalNodes>
          <leafValues>
            -1.2486940622329712e-01 3.7226000428199768e-01</leafValues></_>
        <_>
          <internalNodes>
            0 -1 428 2.4504833854734898e-03</internalNodes>
          <leafValues>
            7.8342355787754059e-02 -6.4608007669448853e-01</leafValues></_>
        <_>
          <internalNodes>
            0 -1 472 -1.6368804499506950e-02</internalNodes>
          <leafValues>
            -3.5955643653869629e-01 1.2144420295953751e-01</leafValues></_>
        <_>
          <internalNodes>
            0 -1 121 -2.6884097605943680e-03</internalNodes>
          <leafValues>
            -4.3041950464248657e-01 1.0550088435411453e-01</leafValues></_>
        <_>
          <internalNodes>
            0 -1 123 3.7688638549298048e-03</internalNodes>
          <leafValues>
            5.2316628396511078e-02 -7.8213077783584595e-01</leafValues></_>
        <_>
          <internalNodes>
            0 -1 394 9.2351883649826050e-03</internalNodes>
          <leafValues>
            4.3042000383138657e-02 -8.1732684373855591e-01</leafValues></_>
        <_>
          <internalNodes>
            0 -1 492 -6.1208168044686317e-03</internalNodes>
          <leafValues>
            2.9840022325515747e-01 -1.5054473280906677e-01</leafValues></_>
        <_>
          <internalNodes>
            0 -1 543 6.0545993037521839e-03</internalNodes>
          <leafValues>
            -1.6195780038833618e-01 3.5818493366241455e-01</leafValues></_></weakClassifiers></_>
    <!-- stage 12 -->
    <_>
      <maxWeakCount>41</maxWeakCount>
      <stageThreshold>-1.3617317676544189e+00</stageThreshold>
      <weakClassifiers>
        <_>
          <internalNodes>
            0 -1 427 -1.3945961836725473e-03</internalNodes>
          <leafValues>
            2.3801916837692261e-01 -3.9839571714401245e-01</leafValues></_>
        <_>
          <internalNodes>
            0 -1 603 5.9392844559624791e-04</internalNodes>
          <leafValues>
            1.1258275061845779e-01 -5.1251018047332764e-01</leafValues></_>
        <_>
          <internalNodes>
            0 -1 633 4.4128429726697505e-04</internalNodes>
          <leafValues>
            -1.4647521078586578e-01 3.8233032822608948e-01</leafValues></_>
        <_>
          <internalNodes>
            0 -1 526 1.7320232000201941e-03</internalNodes>
          <leafValues>
            1.0420347750186920e-01 -5.6384557485580444e-01</leafValues></_>
        <_>
          <internalNodes>
            0 -1 628 -2.8010825626552105e-03</internalNodes>
          <leafValues>
            3.8628515601158142e-01 -1.5760840475559235e-01</leafValues></_>
        <_>
          <internalNodes>
            0 -1 107 2.2622295655310154e-03</internalNodes>
          <leafValues>
            -1.7005403339862823e-01 3.6585795879364014e-01</leafValues></_>
        <_>
          <internalNodes>
            0 -1 102 -1.9287364557385445e-03</internalNodes>
          <leafValues>
            3.1980001926422119e-01 -1.8860618770122528e-01</leafValues></_>
        <_>
          <internalNodes>
            0 -1 207 1.3774134218692780e-02</internalNodes>
          <leafValues>
            9.5117919147014618e-02 -7.0545077323913574e-01</leafValues></_>
        <_>
          <internalNodes>
            0 -1 594 6.7182972998125479e-06</internalNodes>
          <leafValues>
            -2.2043904662132263e-01 2.3793922364711761e-01</leafValues></_>
        <_>
          <internalNodes>
            0 -1 440 2.8635917697101831e-03</internalNodes>
          <leafValues>
            -1.8531677126884460e-01 2.9460617899894714e-01</leafValues></_>
        <_>
          <internalNodes>
            0 -1 142 -4.1722372407093644e-04</internalNodes>
          <leafValues>
            -3.1004247069358826e-01 1.9447733461856842e-01</leafValues></_>
        <_>
          <internalNodes>
            0 -1 669 1.3285379391163588e-03</internalNodes>
          <leafValues>
            -1.1193551868200302e-01 5.5180412530899048e-01</leafValues></_>
        <_>
          <internalNodes>
            0 -1 444 7.9616520451963879e-06</internalNodes>
          <leafValues>
            -2.0390549302101135e-01 2.2450552880764008e-01</leafValues></_>
        <_>
          <internalNodes>
            0 -1 581 -3.9711609482765198e-02</internalNodes>
          <leafValues>
            5.2256649732589722e-01 -1.0094734281301498e-01</leafValues></_>
        <_>
          <internalNodes>
            0 -1 723 9.5280434470623732e-04</internalNodes>
          <leafValues>
            1.1346503347158432e-01 -4.7577789425849915e-01</leafValues></_>
        <_>
          <internalNodes>
            0 -1 707 -5.0793774425983429e-04</internalNodes>
          <leafValues>
            -4.3562495708465576e-01 1.2318562716245651e-01</leafValues></_>
        <_>
          <internalNodes>
            0 -1 237 -1.7883069813251495e-02</internalNodes>
          <leafValues>
            3.1267166137695312e-01 -1.7478631436824799e-01</leafValues></_>
        <_>
          <internalNodes>
            0 -1 606 1.6282699070870876e-03</internalNodes>
          <leafValues>
            -1.9113276898860931e-01 2.9288360476493835e-01</leafValues></_>
        <_>
          <internalNodes>
            0 -1 217 -3.5519622266292572e-02</internalNodes>
          <leafValues>
            5.3741592168807983e-01 -8.8957503437995911e-02</leafValues></_>
        <_>
          <internalNodes>
            0 -1 651 -1.5535012062173337e-04</internalNodes>
          <leafValues>
            -3.1021896004676819e-01 1.6266964375972748e-01</leafValues></_>
        <_>
          <internalNodes>
            0 -1 310 9.8364874720573425e-03</internalNodes>
          <leafValues>
            -7.9442910850048065e-02 7.2232085466384888e-01</leafValues></_>
        <_>
          <internalNodes>
            0 -1 604 -4.1069192811846733e-03</internalNodes>
          <leafValues>
            -5.8101338148117065e-01 1.0546514391899109e-01</leafValues></_>
        <_>
          <internalNodes>
            0 -1 703 -7.1921092458069324e-03</internalNodes>
          <leafValues>
            4.6058812737464905e-01 -1.2000819295644760e-01</leafValues></_>
        <_>
          <internalNodes>
            0 -1 540 1.1375599540770054e-02</internalNodes>
          <leafValues>
            8.3055555820465088e-02 -6.8646532297134399e-01</leafValues></_>
        <_>
          <internalNodes>
            0 -1 620 -4.1393795982003212e-03</internalNodes>
          <leafValues>
            1.8152792751789093e-01 -2.7306810021400452e-01</leafValues></_>
        <_>
          <internalNodes>
            0 -1 233 2.0789375994354486e-03</internalNodes>
          <leafValues>
            8.6993068456649780e-02 -5.3394484519958496e-01</leafValues></_>
        <_>
          <internalNodes>
            0 -1 547 1.0252449661493301e-02</internalNodes>
          <leafValues>
            -1.1302285641431808e-01 4.0459805727005005e-01</leafValues></_>
        <_>
          <internalNodes>
            0 -1 135 3.0123544856905937e-03</internalNodes>
          <leafValues>
            -1.3245408236980438e-01 4.0198996663093567e-01</leafValues></_>
        <_>
          <internalNodes>
            0 -1 254 -1.6262587159872055e-02</internalNodes>
          <leafValues>
            2.3919799923896790e-01 -1.9102303683757782e-01</leafValues></_>
        <_>
          <internalNodes>
            0 -1 129 -1.9528249686118215e-04</internalNodes>
          <leafValues>
            -3.2499089837074280e-01 1.3853383064270020e-01</leafValues></_>
        <_>
          <internalNodes>
            0 -1 57 3.8088173605501652e-03</internalNodes>
          <leafValues>
            -1.3244149088859558e-01 3.4647974371910095e-01</leafValues></_>
        <_>
          <internalNodes>
            0 -1 356 -2.3531909100711346e-03</internalNodes>
          <leafValues>
            -6.0148936510086060e-01 7.3391847312450409e-02</leafValues></_>
        <_>
          <internalNodes>
            0 -1 653 -2.6298366719856858e-04</internalNodes>
          <leafValues>
            -3.5621663928031921e-01 1.1967623233795166e-01</leafValues></_>
        <_>
          <internalNodes>
            0 -1 202 4.3906077742576599e-02</internalNodes>
          <leafValues>
            -1.3882984220981598e-01 3.2715538144111633e-01</leafValues></_>
        <_>
          <internalNodes>
            0 -1 9 8.9172244071960449e-02</internalNodes>
          <leafValues>
            8.4868773818016052e-02 -5.5362766981124878e-01</leafValues></_>
        <_>
          <internalNodes>
            0 -1 151 3.5520777106285095e-02</internalNodes>
          <leafValues>
            -1.2751339375972748e-01 3.6588236689567566e-01</leafValues></_>
        <_>
          <internalNodes>
            0 -1 548 1.2746941065415740e-03</internalNodes>
          <leafValues>
            -1.5543864667415619e-01 3.0192294716835022e-01</leafValues></_>
        <_>
          <internalNodes>
            0 -1 653 7.7043008059263229e-04</internalNodes>
          <leafValues>
            9.7022123634815216e-02 -4.6449235081672668e-01</leafValues></_>
        <_>
          <internalNodes>
            0 -1 671 -2.0613567903637886e-03</internalNodes>
          <leafValues>
            4.8402610421180725e-01 -1.0521250218153000e-01</leafValues></_>
        <_>
          <internalNodes>
            0 -1 108 -1.4335723593831062e-02</internalNodes>
          <leafValues>
            -7.3228234052658081e-01 6.4293637871742249e-02</leafValues></_>
        <_>
          <internalNodes>
            0 -1 406 -1.2170894071459770e-02</internalNodes>
          <leafValues>
            3.3720093965530396e-01 -1.3056443631649017e-01</leafValues></_></weakClassifiers></_>
    <!-- stage 13 -->
    <_>
      <maxWeakCount>40</maxWeakCount>
      <stageThreshold>-1.4519797563552856e+00</stageThreshold>
      <weakClassifiers>
        <_>
          <internalNodes>
            0 -1 234 -1.2780630495399237e-03</internalNodes>
          <leafValues>
            2.0000000298023224e-01 -3.9259257912635803e-01</leafValues></_>
        <_>
          <internalNodes>
            0 -1 408 2.6642517186701298e-03</internalNodes>
          <leafValues>
            -2.1080341935157776e-01 2.9875075817108154e-01</leafValues></_>
        <_>
          <internalNodes>
            0 -1 62 -5.1235541701316833e-02</internalNodes>
          <leafValues>
            -6.8129944801330566e-01 8.9359253644943237e-02</leafValues></_>
        <_>
          <internalNodes>
            0 -1 494 1.3547944836318493e-03</internalNodes>
          <leafValues>
            1.4048174023628235e-01 -4.5918145775794983e-01</leafValues></_>
        <_>
          <internalNodes>
            0 -1 314 -1.6314284948748536e-05</internalNodes>
          <leafValues>
            1.5451678633689880e-01 -3.5263249278068542e-01</leafValues></_>
        <_>
          <internalNodes>
            0 -1 172 2.6357793249189854e-03</internalNodes>
          <leafValues>
            -1.5183719992637634e-01 3.9755094051361084e-01</leafValues></_>
        <_>
          <internalNodes>
            0 -1 716 -8.2437321543693542e-03</internalNodes>
          <leafValues>
            -4.9023494124412537e-01 1.2285873293876648e-01</leafValues></_>
        <_>
          <internalNodes>
            0 -1 189 4.9372198991477489e-03</internalNodes>
          <leafValues>
            -1.6253533959388733e-01 3.6676830053329468e-01</leafValues></_>
        <_>
          <internalNodes>
            0 -1 523 4.6042795293033123e-03</internalNodes>
          <leafValues>
            -2.1117478609085083e-01 2.8625664114952087e-01</leafValues></_>
        <_>
          <internalNodes>
            0 -1 286 1.5197955071926117e-02</internalNodes>
          <leafValues>
            1.4328612387180328e-01 -4.7949257493019104e-01</leafValues></_>
        <_>
          <internalNodes>
            0 -1 163 6.1881251167505980e-04</internalNodes>
          <leafValues>
            8.5117280483245850e-02 -4.4896501302719116e-01</leafValues></_>
        <_>
          <internalNodes>
            0 -1 592 -1.0848370147868991e-03</internalNodes>
          <leafValues>
            2.4492761492729187e-01 -1.9629193842411041e-01</leafValues></_>
        <_>
          <internalNodes>
            0 -1 81 2.2497069090604782e-02</internalNodes>
          <leafValues>
            -8.1984125077724457e-02 5.6358283758163452e-01</leafValues></_>
        <_>
          <internalNodes>
            0 -1 218 -4.1776183061301708e-03</internalNodes>
          <leafValues>
            5.2061748504638672e-01 -8.8016323745250702e-02</leafValues></_>
        <_>
          <internalNodes>
            0 -1 194 -2.4776236386969686e-04</internalNodes>
          <leafValues>
            -3.6139923334121704e-01 1.6864459216594696e-01</leafValues></_>
        <_>
          <internalNodes>
            0 -1 216 -7.8875198960304260e-04</internalNodes>
          <leafValues>
            -4.7320201992988586e-01 9.5019929111003876e-02</leafValues></_>
        <_>
          <internalNodes>
            0 -1 555 1.2853115549660288e-05</internalNodes>
          <leafValues>
            -2.1851204335689545e-01 2.1450503170490265e-01</leafValues></_>
        <_>
          <internalNodes>
            0 -1 23 -4.9636207520961761e-02</internalNodes>
          <leafValues>
            3.5247269272804260e-01 -1.5856213867664337e-01</leafValues></_>
        <_>
          <internalNodes>
            0 -1 423 2.4726937990635633e-03</internalNodes>
          <leafValues>
            9.6658810973167419e-02 -5.3558421134948730e-01</leafValues></_>
        <_>
          <internalNodes>
            0 -1 569 -2.2128071635961533e-02</internalNodes>
          <leafValues>
            4.8925155401229858e-01 -9.7593970596790314e-02</leafValues></_>
        <_>
          <internalNodes>
            0 -1 493 1.1801199987530708e-02</internalNodes>
          <leafValues>
            6.7909814417362213e-02 -7.9608243703842163e-01</leafValues></_>
        <_>
          <internalNodes>
            0 -1 712 2.3485434940084815e-04</internalNodes>
          <leafValues>
            9.4884969294071198e-02 -4.0963810682296753e-01</leafValues></_>
        <_>
          <internalNodes>
            0 -1 82 -1.4648690819740295e-02</internalNodes>
          <leafValues>
            -8.7766563892364502e-01 5.2629042416810989e-02</leafValues></_>
        <_>
          <internalNodes>
            0 -1 572 -1.3539501465857029e-02</internalNodes>
          <leafValues>
            -6.0947883129119873e-01 5.8791510760784149e-02</leafValues></_>
        <_>
          <internalNodes>
            0 -1 608 6.1272601597011089e-03</internalNodes>
          <leafValues>
            5.9615135192871094e-02 -7.0398575067520142e-01</leafValues></_>
        <_>
          <internalNodes>
            0 -1 8 1.6646621748805046e-02</internalNodes>
          <leafValues>
            8.7378099560737610e-02 -5.0775337219238281e-01</leafValues></_>
        <_>
          <internalNodes>
            0 -1 489 1.5399646144942380e-05</internalNodes>
          <leafValues>
            -2.0599895715713501e-01 2.3401007056236267e-01</leafValues></_>
        <_>
          <internalNodes>
            0 -1 489 -1.8238119082525373e-05</internalNodes>
          <leafValues>
            2.8857222199440002e-01 -1.7230574786663055e-01</leafValues></_>
        <_>
          <internalNodes>
            0 -1 181 1.6024995420593768e-04</internalNodes>
          <leafValues>
            -1.3648493587970734e-01 3.1723734736442566e-01</leafValues></_>
        <_>
          <internalNodes>
            0 -1 198 -3.6762678064405918e-03</internalNodes>
          <leafValues>
            -3.7382206320762634e-01 1.1616281419992447e-01</leafValues></_>
        <_>
          <internalNodes>
            0 -1 205 8.1729814410209656e-03</internalNodes>
          <leafValues>
            -9.4824314117431641e-02 4.6833187341690063e-01</leafValues></_>
        <_>
          <internalNodes>
            0 -1 525 2.4141180329024792e-03</internalNodes>
          <leafValues>
            -1.4237412810325623e-01 3.4016323089599609e-01</leafValues></_>
        <_>
          <internalNodes>
            0 -1 447 -1.8899841234087944e-03</internalNodes>
          <leafValues>
            -4.3328055739402771e-01 1.0608407855033875e-01</leafValues></_>
        <_>
          <internalNodes>
            0 -1 278 -1.3692941516637802e-02</internalNodes>
          <leafValues>
            4.1130885481834412e-01 -1.1530688405036926e-01</leafValues></_>
        <_>
          <internalNodes>
            0 -1 396 -3.0291411094367504e-03</internalNodes>
          <leafValues>
            -5.5656659603118896e-01 8.8892161846160889e-02</leafValues></_>
        <_>
          <internalNodes>
            0 -1 134 -5.0866208039224148e-03</internalNodes>
          <leafValues>
            4.0651154518127441e-01 -1.4029909670352936e-01</leafValues></_>
        <_>
          <internalNodes>
            0 -1 251 -1.1786226928234100e-01</internalNodes>
          <leafValues>
            5.9347528219223022e-01 -7.2320349514484406e-02</leafValues></_>
        <_>
          <internalNodes>
            0 -1 672 -9.9269244819879532e-03</internalNodes>
          <leafValues>
            6.8344002962112427e-01 -6.6698409616947174e-02</leafValues></_>
        <_>
          <internalNodes>
            0 -1 280 -1.1251763440668583e-02</internalNodes>
          <leafValues>
            1.9764491915702820e-01 -2.5905415415763855e-01</leafValues></_>
        <_>
          <internalNodes>
            0 -1 307 7.2119841352105141e-03</internalNodes>
          <leafValues>
            -9.3821175396442413e-02 6.6457754373550415e-01</leafValues></_></weakClassifiers></_>
    <!-- stage 14 -->
    <_>
      <maxWeakCount>37</maxWeakCount>
      <stageThreshold>-1.2950593233108521e+00</stageThreshold>
      <weakClassifiers>
        <_>
          <internalNodes>
            0 -1 466 -1.9503608345985413e-03</internalNodes>
          <leafValues>
            2.2251605987548828e-01 -4.3532890081405640e-01</leafValues></_>
        <_>
          <internalNodes>
            0 -1 644 -5.2731256801052950e-06</internalNodes>
          <leafValues>
            2.2672928869724274e-01 -3.1792670488357544e-01</leafValues></_>
        <_>
          <internalNodes>
            0 -1 562 -1.4477220829576254e-03</internalNodes>
          <leafValues>
            -5.8310288190841675e-01 8.9629411697387695e-02</leafValues></_>
        <_>
          <internalNodes>
            0 -1 462 -4.1069788858294487e-03</internalNodes>
          <leafValues>
            2.1406328678131104e-01 -2.9079228639602661e-01</leafValues></_>
        <_>
          <internalNodes>
            0 -1 542 -4.4695198535919189e-02</internalNodes>
          <leafValues>
            5.4875969886779785e-01 -1.2575611472129822e-01</leafValues></_>
        <_>
          <internalNodes>
            0 -1 193 -2.5004953145980835e-02</internalNodes>
          <leafValues>
            3.2139897346496582e-01 -2.2786094248294830e-01</leafValues></_>
        <_>
          <internalNodes>
            0 -1 416 1.5675330068916082e-03</internalNodes>
          <leafValues>
            1.2051843851804733e-01 -4.2360806465148926e-01</leafValues></_>
        <_>
          <internalNodes>
            0 -1 636 -4.8411875031888485e-03</internalNodes>
          <leafValues>
            4.4812715053558350e-01 -1.0866644978523254e-01</leafValues></_>
        <_>
          <internalNodes>
            0 -1 416 -2.5310507044196129e-03</internalNodes>
          <leafValues>
            -5.4142910242080688e-01 1.1703857034444809e-01</leafValues></_>
        <_>
          <internalNodes>
            0 -1 680 -2.0889879669994116e-03</internalNodes>
          <leafValues>
            3.5773086547851562e-01 -1.6991578042507172e-01</leafValues></_>
        <_>
          <internalNodes>
            0 -1 454 1.1209811270236969e-01</internalNodes>
          <leafValues>
            8.0625444650650024e-02 -7.7772116661071777e-01</leafValues></_>
        <_>
          <internalNodes>
            0 -1 173 -3.6918804980814457e-03</internalNodes>
          <leafValues>
            1.8104131519794464e-01 -2.7061605453491211e-01</leafValues></_>
        <_>
          <internalNodes>
            0 -1 258 1.8174199794884771e-05</internalNodes>
          <leafValues>
            -2.1625991165637970e-01 2.6964369416236877e-01</leafValues></_>
        <_>
          <internalNodes>
            0 -1 93 -9.0676278341561556e-04</internalNodes>
          <leafValues>
            3.2849478721618652e-01 -1.6746713221073151e-01</leafValues></_>
        <_>
          <internalNodes>
            0 -1 86 1.0051140561699867e-03</internalNodes>
          <leafValues>
            -1.4040549099445343e-01 3.6686399579048157e-01</leafValues></_>
        <_>
          <internalNodes>
            0 -1 331 -7.0346100255846977e-03</internalNodes>
          <leafValues>
            2.4758835136890411e-01 -2.2642426192760468e-01</leafValues></_>
        <_>
          <internalNodes>
            0 -1 536 1.3385420665144920e-02</internalNodes>
          <leafValues>
            -1.5283735096454620e-01 3.8929092884063721e-01</leafValues></_>
        <_>
          <internalNodes>
            0 -1 5 -1.6584801487624645e-03</internalNodes>
          <leafValues>
            -3.5548093914985657e-01 1.5787868201732635e-01</leafValues></_>
        <_>
          <internalNodes>
            0 -1 149 4.4203188735991716e-04</internalNodes>
          <leafValues>
            1.4629422128200531e-01 -3.1541192531585693e-01</leafValues></_>
        <_>
          <internalNodes>
            0 -1 91 -3.4857116406783462e-04</internalNodes>
          <leafValues>
            4.3465948104858398e-01 -1.1856146156787872e-01</leafValues></_>
        <_>
          <internalNodes>
            0 -1 74 -4.0555398911237717e-02</internalNodes>
          <leafValues>
            -4.2514866590499878e-01 1.2002950906753540e-01</leafValues></_>
        <_>
          <internalNodes>
            0 -1 714 6.2845596112310886e-03</internalNodes>
          <leafValues>
            1.0370320081710815e-01 -4.5060247182846069e-01</leafValues></_>
        <_>
          <internalNodes>
            0 -1 404 9.8886385560035706e-02</internalNodes>
          <leafValues>
            8.8453076779842377e-02 -4.7779256105422974e-01</leafValues></_>
        <_>
          <internalNodes>
            0 -1 359 5.0780139863491058e-03</internalNodes>
          <leafValues>
            7.8561335802078247e-02 -5.9854876995086670e-01</leafValues></_>
        <_>
          <internalNodes>
            0 -1 407 1.4933542843209580e-05</internalNodes>
          <leafValues>
            -2.0740745961666107e-01 2.3549795150756836e-01</leafValues></_>
        <_>
          <internalNodes>
            0 -1 32 -1.2621704954653978e-03</internalNodes>
          <leafValues>
            -4.0008768439292908e-01 1.2396556884050369e-01</leafValues></_>
        <_>
          <internalNodes>
            0 -1 619 8.6686178110539913e-04</internalNodes>
          <leafValues>
            -1.1735086888074875e-01 4.2094397544860840e-01</leafValues></_>
        <_>
          <internalNodes>
            0 -1 355 -3.1475203577429056e-03</internalNodes>
          <leafValues>
            -4.7562789916992188e-01 1.1049725860357285e-01</leafValues></_>
        <_>
          <internalNodes>
            0 -1 431 -2.6681896299123764e-02</internalNodes>
          <leafValues>
            4.1401848196983337e-01 -1.2118800729513168e-01</leafValues></_>
        <_>
          <internalNodes>
            0 -1 332 4.9321576952934265e-03</internalNodes>
          <leafValues>
            -1.3338689506053925e-01 3.6787486076354980e-01</leafValues></_>
        <_>
          <internalNodes>
            0 -1 35 6.6428817808628082e-03</internalNodes>
          <leafValues>
            5.2401687949895859e-02 -8.5013324022293091e-01</leafValues></_>
        <_>
          <internalNodes>
            0 -1 75 -7.2944703788380139e-06</internalNodes>
          <leafValues>
            1.9423329830169678e-01 -2.4474641680717468e-01</leafValues></_>
        <_>
          <internalNodes>
            0 -1 34 -1.4011405408382416e-02</internalNodes>
          <leafValues>
            4.0286055207252502e-01 -1.2302388995885849e-01</leafValues></_>
        <_>
          <internalNodes>
            0 -1 629 -5.4808720014989376e-03</internalNodes>
          <leafValues>
            3.6013811826705933e-01 -1.7308072745800018e-01</leafValues></_>
        <_>
          <internalNodes>
            0 -1 529 -5.8365100994706154e-04</internalNodes>
          <leafValues>
            1.9392535090446472e-01 -2.7622434496879578e-01</leafValues></_>
        <_>
          <internalNodes>
            0 -1 373 -1.6680762637406588e-03</internalNodes>
          <leafValues>
            6.4890038967132568e-01 -7.9748578369617462e-02</leafValues></_>
        <_>
          <internalNodes>
            0 -1 433 3.7604277022182941e-03</internalNodes>
          <leafValues>
            1.1470405012369156e-01 -4.8035678267478943e-01</leafValues></_></weakClassifiers></_>
    <!-- stage 15 -->
    <_>
      <maxWeakCount>38</maxWeakCount>
      <stageThreshold>-1.4196288585662842e+00</stageThreshold>
      <weakClassifiers>
        <_>
          <internalNodes>
            0 -1 347 -3.6095846444368362e-03</internalNodes>
          <leafValues>
            2.3095923662185669e-01 -3.5709738731384277e-01</leafValues></_>
        <_>
          <internalNodes>
            0 -1 486 -5.4556719260290265e-04</internalNodes>
          <leafValues>
            2.0584538578987122e-01 -3.0185467004776001e-01</leafValues></_>
        <_>
          <internalNodes>
            0 -1 352 1.6851515974849463e-03</internalNodes>
          <leafValues>
            1.0754226893186569e-01 -5.6338506937026978e-01</leafValues></_>
        <_>
          <internalNodes>
            0 -1 308 1.4505367726087570e-03</internalNodes>
          <leafValues>
            1.4933104813098907e-01 -4.7010856866836548e-01</leafValues></_>
        <_>
          <internalNodes>
            0 -1 14 3.0005261301994324e-01</internalNodes>
          <leafValues>
            -1.0925377160310745e-01 6.7700761556625366e-01</leafValues></_>
        <_>
          <internalNodes>
            0 -1 66 -2.1411374211311340e-02</internalNodes>
          <leafValues>
            3.0633869767189026e-01 -1.9690085947513580e-01</leafValues></_>
        <_>
          <internalNodes>
            0 -1 425 8.2661560736596584e-04</internalNodes>
          <leafValues>
            1.1280521750450134e-01 -4.9963441491127014e-01</leafValues></_>
        <_>
          <internalNodes>
            0 -1 503 4.7374018467962742e-03</internalNodes>
          <leafValues>
            -1.7932936549186707e-01 2.7435797452926636e-01</leafValues></_>
        <_>
          <internalNodes>
            0 -1 140 -1.2577995657920837e-03</internalNodes>
          <leafValues>
            -3.9539769291877747e-01 1.2935511767864227e-01</leafValues></_>
        <_>
          <internalNodes>
            0 -1 281 1.8646589523996226e-05</internalNodes>
          <leafValues>
            -1.9134829938411713e-01 2.5089856982231140e-01</leafValues></_>
        <_>
          <internalNodes>
            0 -1 59 -5.0921901129186153e-03</internalNodes>
          <leafValues>
            2.6396402716636658e-01 -2.0636664330959320e-01</leafValues></_>
        <_>
          <internalNodes>
            0 -1 379 -3.1210354063659906e-03</internalNodes>
          <leafValues>
            -5.3990870714187622e-01 8.4499992430210114e-02</leafValues></_>
        <_>
          <internalNodes>
            0 -1 242 -3.1561794457957149e-04</internalNodes>
          <leafValues>
            -4.0017974376678467e-01 1.1057103425264359e-01</leafValues></_>
        <_>
          <internalNodes>
            0 -1 58 -3.9290944114327431e-03</internalNodes>
          <leafValues>
            4.1621848940849304e-01 -1.0379473119974136e-01</leafValues></_>
        <_>
          <internalNodes>
            0 -1 438 3.0497971456497908e-03</internalNodes>
          <leafValues>
            -1.1786612868309021e-01 4.4784656167030334e-01</leafValues></_>
        <_>
          <internalNodes>
            0 -1 11 1.1293365241726860e-04</internalNodes>
          <leafValues>
            1.4263510704040527e-01 -3.3436405658721924e-01</leafValues></_>
        <_>
          <internalNodes>
            0 -1 395 -3.4580659121274948e-04</internalNodes>
          <leafValues>
            1.6978910565376282e-01 -2.9395005106925964e-01</leafValues></_>
        <_>
          <internalNodes>
            0 -1 6 -4.9487501382827759e-04</internalNodes>
          <leafValues>
            -3.1314045190811157e-01 1.5637828409671783e-01</leafValues></_>
        <_>
          <internalNodes>
            0 -1 512 -5.8897887356579304e-03</internalNodes>
          <leafValues>
            2.2017414867877960e-01 -2.2300210595130920e-01</leafValues></_>
        <_>
          <internalNodes>
            0 -1 180 1.3940470525994897e-03</internalNodes>
          <leafValues>
            -1.6189852356910706e-01 3.3728295564651489e-01</leafValues></_>
        <_>
          <internalNodes>
            0 -1 515 -6.7606633529067039e-03</internalNodes>
          <leafValues>
            -7.4073797464370728e-01 8.4578312933444977e-02</leafValues></_>
        <_>
          <internalNodes>
            0 -1 265 -6.7403861321508884e-03</internalNodes>
          <leafValues>
            6.5414547920227051e-01 -9.4359613955020905e-02</leafValues></_>
        <_>
          <internalNodes>
            0 -1 610 -1.9147845450788736e-03</internalNodes>
          <leafValues>
            4.9326345324516296e-01 -7.8663848340511322e-02</leafValues></_>
        <_>
          <internalNodes>
            0 -1 219 -1.9555051403585821e-04</internalNodes>
          <leafValues>
            -4.8012092709541321e-01 9.7591191530227661e-02</leafValues></_>
        <_>
          <internalNodes>
            0 -1 475 -1.1792331933975220e-03</internalNodes>
          <leafValues>
            3.9423739910125732e-01 -1.2209611386060715e-01</leafValues></_>
        <_>
          <internalNodes>
            0 -1 497 4.2260251939296722e-02</internalNodes>
          <leafValues>
            -1.3758860528469086e-01 3.2802307605743408e-01</leafValues></_>
        <_>
          <internalNodes>
            0 -1 535 4.2337588965892792e-03</internalNodes>
          <leafValues>
            -1.4761413633823395e-01 3.0526494979858398e-01</leafValues></_>
        <_>
          <internalNodes>
            0 -1 561 1.5474968677153811e-05</internalNodes>
          <leafValues>
            -2.0181427896022797e-01 2.2978018224239349e-01</leafValues></_>
        <_>
          <internalNodes>
            0 -1 616 -9.2302858829498291e-03</internalNodes>
          <leafValues>
            3.0512511730194092e-01 -1.4932991564273834e-01</leafValues></_>
        <_>
          <internalNodes>
            0 -1 630 -9.0085173724219203e-04</internalNodes>
          <leafValues>
            -4.5281764864921570e-01 1.1616384238004684e-01</leafValues></_>
        <_>
          <internalNodes>
            0 -1 296 -2.4315424263477325e-02</internalNodes>
          <leafValues>
            7.2652775049209595e-01 -7.0754356682300568e-02</leafValues></_>
        <_>
          <internalNodes>
            0 -1 471 6.0867104912176728e-04</internalNodes>
          <leafValues>
            -1.6753487288951874e-01 2.8197711706161499e-01</leafValues></_>
        <_>
          <internalNodes>
            0 -1 415 8.2967672497034073e-03</internalNodes>
          <leafValues>
            7.0907376706600189e-02 -6.4572978019714355e-01</leafValues></_>
        <_>
          <internalNodes>
            0 -1 510 -1.9035091099794954e-05</internalNodes>
          <leafValues>
            2.0277352631092072e-01 -2.4562253057956696e-01</leafValues></_>
        <_>
          <internalNodes>
            0 -1 370 5.7980180718004704e-03</internalNodes>
          <leafValues>
            7.7081076800823212e-02 -5.9560018777847290e-01</leafValues></_>
        <_>
          <internalNodes>
            0 -1 521 -9.8082453012466431e-02</internalNodes>
          <leafValues>
            -7.6778900623321533e-01 5.1239155232906342e-02</leafValues></_>
        <_>
          <internalNodes>
            0 -1 295 -2.6231771335005760e-03</internalNodes>
          <leafValues>
            -3.9233344793319702e-01 1.0982501506805420e-01</leafValues></_>
        <_>
          <internalNodes>
            0 -1 517 -4.7523717512376606e-04</internalNodes>
          <leafValues>
            -3.4452900290489197e-01 1.4500290155410767e-01</leafValues></_></weakClassifiers></_>
    <!-- stage 16 -->
    <_>
      <maxWeakCount>40</maxWeakCount>
      <stageThreshold>-1.4524290561676025e+00</stageThreshold>
      <weakClassifiers>
        <_>
          <internalNodes>
            0 -1 346 -2.3494865745306015e-03</internalNodes>
          <leafValues>
            2.3330442607402802e-01 -3.1759148836135864e-01</leafValues></_>
        <_>
          <internalNodes>
            0 -1 109 4.2098033009096980e-04</internalNodes>
          <leafValues>
            -1.8434393405914307e-01 3.4427145123481750e-01</leafValues></_>
        <_>
          <internalNodes>
            0 -1 294 -2.3551934282295406e-04</internalNodes>
          <leafValues>
            2.0193728804588318e-01 -2.9448497295379639e-01</leafValues></_>
        <_>
          <internalNodes>
            0 -1 100 2.1343259140849113e-03</internalNodes>
          <leafValues>
            -1.4312450587749481e-01 4.2650517821311951e-01</leafValues></_>
        <_>
          <internalNodes>
            0 -1 284 7.4961804784834385e-03</internalNodes>
          <leafValues>
            1.5292587876319885e-01 -5.5585986375808716e-01</leafValues></_>
        <_>
          <internalNodes>
            0 -1 80 -7.0824921131134033e-03</internalNodes>
          <leafValues>
            3.4945482015609741e-01 -1.9502435624599457e-01</leafValues></_>
        <_>
          <internalNodes>
            0 -1 527 2.6550203561782837e-02</internalNodes>
          <leafValues>
            -1.1644449830055237e-01 5.2138710021972656e-01</leafValues></_>
        <_>
          <internalNodes>
            0 -1 393 -8.6782686412334442e-04</internalNodes>
          <leafValues>
            2.8346851468086243e-01 -2.4039244651794434e-01</leafValues></_>
        <_>
          <internalNodes>
            0 -1 375 -8.8856572983786464e-04</internalNodes>
          <leafValues>
            7.9675108194351196e-01 -8.4771573543548584e-02</leafValues></_>
        <_>
          <internalNodes>
            0 -1 21 3.5153428325429559e-04</internalNodes>
          <leafValues>
            1.4746502041816711e-01 -3.7543860077857971e-01</leafValues></_>
        <_>
          <internalNodes>
            0 -1 321 -3.5402239300310612e-03</internalNodes>
          <leafValues>
            -4.5292291045188904e-01 1.2927401065826416e-01</leafValues></_>
        <_>
          <internalNodes>
            0 -1 553 -6.5412390977144241e-03</internalNodes>
          <leafValues>
            -5.0678068399429321e-01 1.0035590082406998e-01</leafValues></_>
        <_>
          <internalNodes>
            0 -1 496 4.7874720767140388e-03</internalNodes>
          <leafValues>
            -1.6597342491149902e-01 3.1483650207519531e-01</leafValues></_>
        <_>
          <internalNodes>
            0 -1 141 -6.1091519892215729e-03</internalNodes>
          <leafValues>
            4.3217250704765320e-01 -1.4870797097682953e-01</leafValues></_>
        <_>
          <internalNodes>
            0 -1 19 3.1111675500869751e-01</internalNodes>
          <leafValues>
            -4.7755055129528046e-02 6.6118073463439941e-01</leafValues></_>
        <_>
          <internalNodes>
            0 -1 558 3.8829417899250984e-03</internalNodes>
